label,flex_thumb,flex_index,flex_middle,flex_ring,flex_pinky,accel_x,accel_y,accel_z,gyro_x,gyro_y,gyro_z,hand
N,694.75,817.29,803.29,807.49,786.47,-0.1061,9.4667,0.7521,0.0049,0.005,-0.0403,left
G,487.91,182.34,823.61,803.97,779.72,-5.0564,4.9983,6.1078,-0.0769,-0.078,-0.0143,left
D,498.16,198.37,795.64,788.54,810.55,-0.1459,9.2785,1.5487,-0.0035,-0.0013,-0.0337,left
H,479.83,201.96,196.07,816.68,813.01,5.2272,4.7607,5.5688,0.0347,-0.0554,0.0213,right
A,698.36,786.87,808.85,813.56,788.72,0.0647,9.5987,0.3792,-0.0001,0.0966,0.0155,left
Y,214.83,794.49,801.38,799.72,173.37,-0.2762,8.8173,3.9933,0.0981,-0.0571,0.0566,left
E,600.69,670.74,677.11,691.87,669.15,0.0002,9.8376,0.6288,-0.0745,0.0037,0.02,right
T,631.35,800.24,806.66,806.9,825.39,0.3643,9.8354,0.388,0.0072,0.0866,0.0823,right
J,826.22,816.19,787.54,808.06,216.59,-0.0834,9.5675,0.5306,3.0601,0.4706,2.0874,right
Z,479.02,184.77,790.09,795.35,793.54,-0.5154,8.9999,2.2846,2.4559,1.4558,1.0019,left
C,494.13,511.75,494.36,519.37,495.22,0.3034,8.2631,3.9518,0.0119,0.0194,0.0316,right
V,531.09,196.67,201.68,792.79,783.42,0.2919,8.9866,2.7365,0.0412,-0.0092,0.0735,right
R,484.1,191.36,240.98,802.53,794.21,-0.5394,9.3976,1.8099,-0.0372,-0.0193,0.069,left
N,673.47,798.24,801.29,796.99,807.48,0.3148,9.602,0.9386,0.0345,0.0166,0.0499,right
U,489.01,215.89,206.03,786.18,790.56,-0.1337,9.4664,1.1586,0.0819,-0.0852,-0.0516,left
R,498.57,202.33,254.22,819.66,786.03,-0.1954,9.3498,1.934,0.0131,-0.0636,-0.0259,left
F,381.17,755.73,241.15,220.61,196.97,0.787,8.8649,1.8326,-0.0026,-0.0239,-0.0244,right
P,492.65,214.71,507.32,792.04,813.43,3.2925,5.1914,7.4005,-0.0929,-0.0165,0.0583,right
H,487.72,193.41,214.0,793.46,813.0,5.0357,4.9327,5.5736,0.0798,-0.05,-0.03,right
B,716.54,194.73,230.58,187.15,214.07,0.2765,9.9514,0.5009,0.0503,-0.0009,-0.1174,right
E,606.99,688.75,686.46,672.62,686.48,-0.1076,9.4375,0.9815,-0.0207,-0.0773,-0.0296,right
F,369.75,756.9,176.0,229.82,212.33,-0.494,9.1988,1.6131,-0.0511,0.0314,0.0259,left
K,498.32,217.28,396.8,800.96,796.06,1.0151,9.1609,3.033,-0.1232,0.0943,0.0127,right
B,744.88,209.14,194.61,225.78,210.81,0.1072,9.7314,0.131,0.0149,0.0402,-0.0141,left
C,505.9,503.58,500.31,479.98,471.23,0.5567,8.4675,4.0757,-0.0035,0.0207,-0.0639,right
U,503.95,196.44,191.53,793.71,798.6,0.2531,9.674,1.026,0.0013,0.0278,0.0185,right
A,674.14,819.11,782.46,808.41,835.38,0.0407,9.9066,0.6486,-0.0276,-0.0278,0.0323,left
W,528.95,193.86,185.96,196.94,817.37,0.0258,9.1386,1.3899,0.0749,-0.0367,0.0453,left
B,758.53,201.62,178.48,206.28,190.68,-0.1756,9.9565,-0.1199,0.0284,0.023,0.1026,left
W,505.38,217.49,230.72,197.84,779.83,-0.3581,9.4595,1.5407,0.0149,0.0582,-0.011,left
X,502.09,510.38,805.41,804.53,792.96,0.4585,9.4429,1.0096,0.0654,0.0566,0.0013,right
L,162.64,209.04,803.84,800.17,786.64,0.2299,8.2985,4.9916,0.047,0.0222,-0.005,right
L,210.85,189.19,789.26,799.44,818.71,-0.5325,7.9493,5.1398,0.0662,-0.0073,0.0384,left
V,515.58,187.81,175.61,816.2,804.89,-0.4569,9.1492,2.4074,0.0862,-0.0254,-0.0726,left
W,501.89,210.45,200.72,207.24,802.05,0.4383,9.5336,1.5029,0.0121,-0.0072,0.0082,right
Q,492.09,167.96,808.09,813.71,821.98,2.9835,5.666,7.0277,-0.0921,-0.009,-0.0297,right
W,505.43,195.69,219.25,214.14,769.93,-0.4797,9.0872,1.4543,-0.0585,-0.0929,-0.0198,left
O,580.44,575.15,557.87,564.14,570.68,0.0663,9.0691,2.952,-0.0196,-0.0127,-0.0234,right
R,485.12,207.68,255.77,807.58,793.02,-0.1589,9.5662,2.0102,-0.0362,-0.0323,-0.0121,left
Y,182.31,813.54,800.74,790.95,181.62,-0.236,8.9562,4.0693,-0.0135,-0.0445,-0.0184,left
G,503.68,186.16,815.58,793.82,806.96,-5.0521,4.9798,5.9743,-0.0327,0.0367,-0.0043,left
G,524.8,208.59,787.2,821.07,774.59,-5.1933,4.7837,5.9869,0.0409,0.0406,0.0645,left
N,681.77,797.04,802.78,789.08,779.56,-0.4386,9.7322,0.8592,-0.0696,-0.0382,0.0252,left
A,690.66,825.02,795.53,792.89,799.66,-0.3033,9.496,0.4002,-0.0016,-0.0208,0.0211,left
G,511.76,228.83,812.74,807.79,816.35,5.3409,5.0797,6.0418,0.0216,0.0183,0.0198,right
E,616.46,669.69,680.08,675.59,666.21,0.0741,9.5037,0.8339,0.024,-0.032,-0.0165,right
Q,489.66,190.01,800.5,794.01,804.32,-2.9907,5.5266,6.8724,0.0184,0.0477,-0.058,left
R,500.84,199.93,247.46,804.34,777.72,0.4644,9.4027,1.7404,-0.0108,-0.0099,-0.0359,right
V,508.12,220.11,200.57,783.44,773.97,0.6068,8.9248,2.5346,0.0135,0.0119,0.0205,right
S,761.31,811.61,768.46,810.99,787.7,0.054,9.7701,0.5668,-0.0448,-0.0686,0.0469,right
S,739.09,815.64,791.35,783.35,781.17,-0.034,10.1956,0.0404,0.1254,0.0406,-0.0503,right
F,375.78,752.81,171.4,217.51,187.82,0.5845,9.2001,2.1093,0.0496,-0.0506,0.0419,right
P,497.81,201.41,488.35,785.4,810.99,2.9453,4.9883,7.534,0.0317,0.0132,0.1169,right
E,586.93,667.38,667.56,687.25,672.78,-0.27,9.5957,0.843,0.0385,0.0182,0.1195,left
Y,183.37,791.09,793.75,798.67,202.85,-0.0423,8.8945,3.9857,0.1023,0.013,-0.0145,right
X,497.16,501.93,798.59,801.28,804.39,-0.3937,9.2483,1.7339,0.0213,-0.0116,0.0253,left
A,668.17,805.63,792.35,806.32,826.07,-0.2662,9.9606,0.4636,-0.0383,0.1214,0.0078,left
D,510.34,207.52,791.08,792.33,769.27,-0.2258,9.5815,1.5312,-0.1067,0.0307,-0.0846,left
A,679.3,823.55,834.19,800.36,776.78,0.0428,9.6887,0.2767,-0.0125,0.0143,-0.023,right
G,514.37,194.54,824.47,795.69,793.74,-5.1594,5.0092,6.0448,-0.0404,-0.0105,-0.0243,left
Q,498.42,208.91,788.13,788.93,798.87,-3.0624,5.3206,7.0897,-0.0225,0.0138,0.0392,left
Z,492.97,209.57,810.52,789.91,810.6,-0.4181,9.1887,2.1036,2.5286,1.43,0.9553,left
E,613.77,675.36,675.75,693.55,673.79,0.0317,9.8433,0.7269,0.0091,-0.0302,-0.0051,left
B,735.14,195.88,178.42,255.22,196.44,-0.1797,9.8336,-0.0773,0.1198,0.0599,-0.0342,right
Z,496.98,176.09,780.53,825.42,786.27,-0.4246,8.9152,1.7087,2.548,1.5367,0.9627,left
H,512.17,215.97,186.38,788.06,789.04,4.8455,5.2265,5.346,-0.0695,0.0154,-0.0143,right
C,493.31,504.16,477.41,512.69,482.04,-0.3578,8.6717,3.7515,-0.005,-0.0047,0.0161,left
O,574.85,567.98,566.35,574.83,578.97,0.0671,8.7052,2.9298,0.0458,-0.0407,-0.0636,left
A,685.42,808.52,812.8,793.72,784.31,0.2211,9.7252,0.4393,0.097,0.0329,0.0158,right
T,584.3,806.1,775.5,814.78,776.44,0.241,9.3478,0.6249,0.0093,0.0153,0.0572,right
U,521.47,219.07,196.97,792.99,803.34,-0.2418,9.6662,0.8936,0.0275,0.0471,0.0879,left
H,480.15,183.96,204.84,781.22,809.11,5.175,5.1293,5.4845,-0.0102,-0.0662,-0.0072,right
P,490.18,184.02,520.01,796.83,793.58,2.8335,4.9794,7.5764,0.0336,-0.0306,-0.0055,right
R,492.33,164.18,283.15,790.87,820.6,-0.2895,9.3074,1.7494,-0.1606,-0.0804,0.0223,left
R,493.88,193.22,238.62,797.81,775.66,0.4479,9.4528,1.9197,-0.0054,-0.0063,-0.0277,right
T,631.26,786.75,815.36,799.14,816.48,0.1869,9.7077,0.4305,0.0259,0.0059,-0.0416,right
T,633.83,825.27,818.94,822.88,805.98,-0.1558,9.4261,0.4974,-0.0409,-0.0361,0.1048,left
E,644.81,669.52,672.86,677.63,660.49,0.0448,9.6241,0.8182,-0.0458,0.0213,-0.0474,right
F,390.61,765.38,190.55,191.78,195.87,0.3809,9.4934,1.9532,-0.0041,0.1063,0.0196,right
Y,184.72,787.71,834.1,813.93,196.52,-0.4176,8.942,3.9521,0.0004,-0.079,0.0738,left
H,503.98,196.18,220.98,826.84,802.72,-5.094,4.8953,5.6006,-0.1113,-0.0804,0.0005,left
W,498.68,227.79,184.39,221.92,812.04,0.2393,9.5408,1.5864,-0.0585,-0.0085,-0.065,right
W,513.51,195.23,217.44,234.65,824.73,-0.2963,9.3099,1.2633,0.0552,0.0295,0.127,left
X,509.89,489.27,817.92,806.14,800.58,0.6503,9.3595,1.2382,-0.0718,-0.0422,-0.0067,right
L,194.45,209.38,755.9,822.72,814.69,0.5545,8.0716,5.0935,-0.0313,0.013,-0.01,right
U,495.73,185.78,186.21,818.71,793.01,-0.0493,9.8943,1.3135,0.0671,-0.0189,-0.1633,left
Z,482.25,205.77,785.44,792.07,794.02,-0.4613,8.9094,1.7194,2.5988,1.5139,1.0406,left
U,499.71,212.15,174.06,786.25,810.54,-0.0226,9.3584,0.8987,-0.034,0.0151,-0.0586,right
Y,191.56,786.41,815.46,791.12,212.25,-0.1811,8.6479,4.199,0.0173,-0.0255,-0.0553,left
D,487.86,209.06,801.48,798.39,805.99,0.2716,9.3929,1.361,0.0348,-0.0116,-0.0185,right
Z,523.23,177.5,794.49,767.75,798.08,-0.7949,8.8954,1.8249,2.5043,1.5272,0.8727,left
W,510.86,200.37,202.69,197.05,790.95,-0.5348,9.3756,1.8054,-0.0079,0.0213,0.0249,left
E,609.21,700.66,664.38,669.22,665.31,-0.0307,9.6325,0.6936,-0.0067,0.0285,-0.0836,right
L,212.72,198.37,795.54,790.65,795.36,0.6105,7.9526,4.964,-0.0297,-0.0153,-0.0002,right
U,480.56,203.17,198.16,762.42,786.26,0.3601,9.4956,1.0499,0.0326,0.0018,-0.0245,right
T,641.21,813.36,816.05,803.55,803.85,-0.139,9.4579,0.463,0.0577,0.0153,0.0546,left
I,824.11,809.1,800.37,793.24,200.35,-0.0768,9.5457,0.2928,0.0206,-0.0283,0.0131,left
L,184.79,189.39,787.23,818.32,803.44,-0.5065,8.0707,4.9381,0.0044,0.0472,-0.0028,left
W,491.05,212.16,201.09,193.47,778.9,-0.2029,9.4219,1.5875,-0.0301,0.0575,0.0594,left
U,486.04,199.86,217.42,807.24,806.85,-0.157,9.6912,0.8521,0.0169,0.07,-0.0812,left
C,501.55,498.21,477.66,513.44,496.98,-0.4897,8.6117,3.9949,-0.0754,-0.0101,0.0192,left
T,621.42,794.05,800.26,829.62,813.79,0.339,9.5205,0.513,0.0309,-0.0346,0.0022,right
O,554.66,575.85,565.5,543.48,574.28,-0.1851,9.0823,2.89,0.0474,-0.1154,0.0167,left
O,567.47,546.32,529.66,567.07,529.43,-0.1483,9.0541,2.9082,-0.0097,0.1049,0.0551,left
D,520.39,188.46,795.81,827.62,778.7,0.1931,9.5266,1.5262,-0.0467,0.0482,0.0444,right
P,498.62,209.68,503.35,775.05,815.8,-3.1943,4.9255,7.5063,-0.009,-0.0505,-0.0501,left
H,502.52,196.19,179.75,811.76,790.59,5.2216,5.0076,5.3362,0.0162,-0.0427,0.0793,right
I,793.0,779.57,798.82,816.5,195.18,-0.0043,9.4041,0.1789,0.0043,-0.0066,0.0094,right
G,502.34,190.25,814.3,792.43,798.72,-5.0564,4.7812,5.8779,-0.0085,-0.065,-0.0618,left
A,686.03,791.19,805.16,771.48,815.65,-0.2998,9.5834,0.6588,-0.0667,-0.004,0.0037,left
S,743.01,820.53,816.01,787.36,805.65,0.0098,9.8385,0.1164,0.0412,-0.0769,0.0082,left
D,506.34,197.0,791.91,775.13,788.89,-0.1119,9.4766,1.3982,0.0809,-0.0168,-0.0695,left
L,211.13,218.83,796.02,767.44,803.42,0.3901,7.9767,5.1748,0.0063,-0.0379,0.0299,right
L,185.75,185.75,819.49,808.69,810.25,0.4077,8.0977,5.0087,-0.0235,0.1076,-0.0723,right
F,379.73,760.75,198.18,211.42,198.9,-0.7038,9.4077,1.8684,-0.026,-0.0404,0.0395,left
P,503.31,200.37,506.56,792.44,784.25,3.1429,5.1615,7.5424,-0.0,-0.0111,0.0074,right
G,508.22,189.38,838.19,792.29,797.95,4.9072,5.1334,5.9235,-0.0327,0.0935,0.039,right
O,554.63,567.74,564.02,585.5,584.38,0.0531,8.9841,3.0322,-0.0836,-0.0039,0.0312,right
N,688.85,799.93,792.17,780.1,782.48,0.4655,9.3609,0.703,-0.0292,-0.0335,-0.024,right
B,743.5,190.77,213.33,199.31,217.12,0.0553,9.9782,0.4113,-0.0315,0.045,0.0525,right
Z,487.99,188.44,838.41,808.3,791.45,0.3919,8.8052,2.0668,2.5338,1.5301,0.9219,right
J,812.79,801.33,828.11,807.67,202.81,0.1274,9.6447,0.3751,3.008,0.547,1.9895,left
A,672.19,802.82,797.09,819.26,808.83,0.3554,9.4531,0.4967,-0.0533,0.0577,0.0411,left
Z,472.76,200.02,770.96,800.84,814.01,-0.3063,9.1533,2.0138,2.4512,1.5103,0.9382,left
C,494.69,516.45,518.8,495.54,502.77,0.2626,8.7159,3.9759,-0.0254,0.0267,0.035,right
Z,508.61,208.2,814.52,827.25,792.1,0.4109,9.0298,2.1039,2.4616,1.4628,1.0209,right
A,678.95,781.03,798.12,800.92,827.67,0.2415,9.8551,0.3931,0.0335,-0.057,0.0156,right
Q,483.62,208.92,819.5,825.66,777.31,-3.0363,5.3832,6.8862,-0.0313,0.0003,0.0392,left
V,474.75,182.94,163.94,819.71,779.97,-0.5423,9.3043,2.4156,-0.0018,-0.0476,0.0636,left
K,492.44,225.82,384.31,806.81,819.37,0.8347,9.1564,3.171,0.0065,-0.0369,0.0317,right
N,697.48,797.46,793.14,809.26,773.55,-0.2557,9.5047,0.443,-0.0588,0.031,0.0893,left
P,532.3,190.88,486.43,788.5,800.7,2.8666,4.8718,7.6069,-0.0511,-0.0002,-0.0945,right
E,601.18,690.09,683.22,679.51,677.61,0.1926,9.4957,1.0552,-0.0411,-0.0699,0.0142,left
N,689.67,811.06,793.34,806.3,822.72,0.3286,9.6436,0.3843,-0.0273,-0.0161,0.1043,right
H,491.41,145.59,207.45,792.85,773.01,4.9918,5.2697,5.259,-0.0922,-0.1048,-0.0105,right
Q,494.23,216.06,792.17,811.69,773.14,-2.6617,5.4366,7.1005,-0.0263,0.0544,0.0643,left
V,511.16,188.48,184.58,802.4,774.59,-0.6459,8.9575,2.4938,-0.0121,-0.0249,0.0204,left
H,518.53,195.41,226.51,807.13,820.27,-5.0505,4.9481,5.4255,0.1049,0.0417,-0.0055,left
N,706.01,789.25,779.15,813.91,812.71,-0.2649,9.4226,0.7603,-0.0071,-0.0478,-0.0904,left
H,505.74,174.09,193.18,794.0,776.32,5.2007,5.001,5.3548,-0.0312,-0.0037,-0.0143,right
W,509.21,199.49,188.19,202.23,814.81,0.3064,9.1282,1.5601,0.0331,-0.0847,0.0256,right
I,809.0,798.06,821.75,796.85,200.05,-0.0539,10.0065,0.2914,-0.0166,0.0595,0.0371,left
F,395.12,750.61,182.44,222.99,183.25,0.3606,9.1832,2.1179,0.0124,-0.0363,-0.048,right
G,507.42,179.03,764.25,809.79,813.11,5.1831,4.9716,6.0244,0.0078,0.0776,-0.0359,right
R,495.09,213.49,252.14,788.86,806.06,-0.2213,9.3532,1.7501,0.0272,-0.0099,-0.0126,left
I,794.32,801.38,791.47,776.54,181.78,0.2687,9.793,0.2813,0.0246,0.0017,0.0386,right
F,389.95,758.76,215.38,169.48,167.92,0.2721,9.2235,2.402,-0.0591,-0.0159,0.0666,right
E,635.8,669.45,627.26,665.22,654.48,0.0452,9.5291,0.8796,0.0113,-0.0805,-0.0142,right
B,771.88,217.85,201.55,188.34,204.76,0.1896,9.7726,0.1749,0.0481,-0.0403,-0.0266,right
S,726.46,758.95,820.39,799.41,813.43,0.0111,9.7162,0.2581,0.0324,0.0209,0.0633,left
H,481.59,215.23,213.25,787.54,789.94,-5.0264,4.8706,5.4905,-0.0383,0.0598,0.104,left
Y,208.73,803.36,768.59,805.8,193.25,-0.1618,8.8187,3.9134,0.0664,0.0402,-0.0272,left
M,809.44,791.2,817.09,803.26,809.91,-0.4955,9.5945,0.6877,0.0232,-0.0261,0.0508,left
V,516.79,204.7,175.42,774.41,820.42,-0.6582,8.8662,2.5717,-0.0075,0.0027,0.0585,left
I,813.84,780.9,791.35,802.36,215.03,0.2761,9.6786,0.4811,0.0165,0.0814,-0.0006,right
E,604.62,654.52,672.24,695.19,698.48,-0.0293,9.5772,0.9611,0.0759,-0.0147,0.0299,right
F,387.55,722.92,216.08,191.71,201.34,0.5159,9.1831,2.1469,-0.0241,-0.0555,-0.1151,right
Z,498.77,209.7,807.74,778.9,789.47,0.4738,9.0076,2.1023,2.4185,1.5857,0.9962,right
W,485.51,188.81,201.56,198.7,793.71,0.181,9.2728,1.5567,0.0421,-0.0639,0.0347,right
T,587.8,787.57,806.06,786.8,798.68,-0.16,9.7637,0.7024,0.0815,0.0735,-0.041,left
V,505.13,199.72,209.23,770.19,795.61,0.4981,9.2053,2.5025,0.0445,-0.066,-0.05,right
C,514.38,489.91,494.26,501.21,497.09,0.5975,8.6276,3.9262,0.0091,0.0778,-0.0528,right
V,491.06,181.25,226.16,792.18,832.41,-0.469,9.0889,2.1874,0.02,-0.0563,-0.0083,left
M,814.37,793.98,812.75,807.78,797.9,0.4799,9.2615,0.6036,0.0621,0.0972,0.1019,right
L,178.0,211.21,820.3,818.12,814.85,-0.5966,8.0458,4.7678,0.0745,-0.1109,0.024,left
Z,520.23,196.7,822.55,786.58,803.51,0.3688,8.8681,1.9816,2.4635,1.4473,1.0273,right
F,374.6,738.01,194.64,215.79,190.67,-0.5597,9.2035,2.0882,-0.0184,0.002,0.02,left
Y,200.45,789.77,784.27,814.86,196.0,0.2163,8.9875,4.1847,-0.0413,0.0798,0.0124,right
V,505.41,224.44,197.14,770.11,785.42,0.6062,8.9593,2.3409,0.0428,0.1028,-0.0387,right
J,773.09,802.81,778.17,794.52,234.64,-0.2489,9.5464,0.3384,2.9888,0.4349,2.0171,left
S,727.11,804.33,823.54,775.6,805.41,0.1847,9.6142,0.289,0.0018,-0.0066,0.0445,right
O,569.45,561.4,571.99,570.31,544.08,-0.2871,8.9238,3.0714,-0.0584,-0.0677,-0.0358,right
Z,511.96,209.0,807.47,786.27,799.98,-0.5015,8.9007,2.1593,2.3801,1.4961,0.9808,left
R,490.5,182.9,268.06,797.73,807.95,0.1103,9.2585,1.7363,-0.0204,-0.0686,-0.0546,right
N,670.99,825.88,795.26,810.16,789.68,0.3128,9.412,0.5533,0.0069,0.03,-0.0664,right
B,739.51,211.55,192.25,196.07,172.55,0.0438,9.6989,0.2602,0.0264,-0.0676,-0.0507,right
B,725.27,199.57,201.87,206.28,205.03,-0.013,9.9426,0.1625,0.0087,0.0609,0.0203,left
G,493.66,215.65,798.15,784.71,798.63,-4.9907,4.87,5.8225,0.0129,-0.0473,0.0012,left
R,514.25,210.23,270.89,796.28,816.22,-0.3059,9.4981,1.6466,-0.0529,-0.078,-0.0383,left
D,514.38,205.24,788.38,796.69,817.13,-0.2226,9.4357,1.5548,-0.0197,0.0534,-0.0087,left
O,567.38,538.32,568.41,581.23,555.57,-0.1851,9.0472,3.1604,-0.0248,-0.0031,-0.0071,right
B,756.24,217.07,216.54,209.74,191.7,-0.105,9.9623,0.3681,0.1619,-0.0559,0.0189,left
I,804.14,812.5,810.17,804.75,192.46,-0.1971,9.8272,0.2078,0.0782,0.0103,0.0307,left
P,480.53,212.73,516.94,798.94,793.98,3.0449,5.0348,7.0997,0.053,0.0103,-0.0002,right
K,508.97,205.8,378.82,773.85,786.6,1.1607,8.9266,2.9587,0.0101,-0.0078,-0.0229,right
K,488.72,200.83,401.43,817.59,758.29,0.8124,9.0936,2.8426,0.014,0.0244,0.0354,right
O,565.67,548.88,586.53,590.56,543.25,0.104,8.9748,3.2061,0.0602,-0.0501,-0.0021,right
G,484.04,198.29,812.48,821.1,763.33,-4.9799,4.681,5.8836,-0.0352,-0.0408,0.0063,left
N,693.83,788.04,802.0,785.29,794.47,-0.1926,9.5466,0.8339,-0.0149,-0.0913,0.0652,left
E,645.3,704.34,688.94,695.23,687.33,0.1023,9.8691,0.9155,-0.0856,0.0616,0.0593,right
N,698.31,815.66,769.94,808.68,795.94,0.1873,9.6911,0.7273,0.0707,0.0297,0.0108,right
D,523.33,192.86,780.08,793.03,820.95,0.1378,9.3985,1.4358,-0.0167,0.0114,-0.0206,right
D,506.8,198.88,793.48,790.15,813.55,-0.1063,9.9724,1.6731,0.0185,0.095,0.0137,right
L,212.04,165.05,785.9,814.78,789.84,0.518,7.88,5.2177,0.1146,-0.0027,0.0407,right
S,747.12,805.15,851.2,789.34,801.05,-0.2626,9.7858,0.3347,0.0541,-0.0651,-0.042,left
S,740.44,832.0,825.75,789.99,795.88,0.2243,9.6136,0.5226,0.0607,0.0222,0.0161,right
M,802.9,795.05,811.74,797.25,806.01,0.1519,9.5766,0.2402,0.0313,0.0442,-0.0397,right
S,759.06,833.55,812.33,805.05,809.62,-0.1239,9.5738,0.337,-0.028,0.0391,0.0072,right
B,765.02,174.54,170.46,215.54,211.71,0.0392,9.7732,0.2648,-0.029,-0.0013,-0.0963,left
Y,180.1,796.68,801.82,818.95,176.04,0.1681,8.8472,3.8798,0.0586,-0.1168,0.0332,right
Z,498.96,196.97,799.64,784.12,796.29,0.1103,8.7748,1.9597,2.5097,1.5211,0.9601,right
F,395.89,748.07,201.9,190.38,186.07,0.54,9.1774,1.9761,-0.0252,0.0075,0.0141,right
R,510.83,227.3,253.41,799.26,823.75,-0.2492,9.4393,2.2163,-0.0049,-0.0285,0.0559,left
U,487.97,192.95,194.12,805.37,817.47,0.0378,9.4533,1.3134,-0.0837,-0.047,0.0253,left
Q,514.53,189.05,811.37,805.28,809.96,-3.0706,5.5091,7.0592,-0.0325,-0.0222,0.0097,left
X,492.06,472.87,782.7,792.39,806.93,0.5791,9.1791,0.8511,0.0888,0.0352,-0.0756,right
L,167.25,178.88,802.77,773.7,802.94,-0.3577,8.2101,5.1177,0.002,0.0953,-0.0674,left
Z,519.56,210.5,812.2,793.61,784.25,0.6966,9.031,2.162,2.5834,1.5166,1.0211,right
S,724.83,794.43,790.72,808.01,785.02,-0.136,9.7406,0.2676,-0.0878,0.042,0.0122,left
H,483.48,206.77,180.57,788.07,825.91,-5.1388,4.9634,5.3354,0.0595,-0.0537,-0.0401,left
Z,487.83,212.6,790.43,802.54,810.39,0.3494,8.9955,1.7208,2.5774,1.5233,1.0148,right
H,489.85,238.46,178.17,797.57,806.79,-4.9129,5.0809,5.3258,0.0432,0.0154,0.0707,left
V,529.98,177.15,215.51,796.77,789.09,-0.6814,9.1775,2.8357,0.0005,-0.0131,0.0467,left
O,542.64,580.63,587.39,569.76,556.76,0.1864,8.9697,3.2608,0.068,-0.0343,0.0295,right
O,553.57,561.25,546.29,560.89,538.93,-0.0226,8.9988,3.1185,-0.0055,0.0409,-0.0432,right
K,509.77,205.82,366.88,796.38,783.64,-0.8725,8.8579,3.1681,0.0184,-0.0893,-0.0201,left
N,672.41,794.08,794.66,821.88,803.53,-0.34,9.5067,0.7155,0.0149,0.0297,0.0386,left
L,192.4,198.3,810.75,813.8,810.79,0.4138,7.7993,5.0542,0.0944,-0.0528,0.0844,right
B,730.27,218.24,223.95,239.08,199.15,-0.1262,9.6546,0.4411,-0.0769,-0.0158,-0.0283,right
E,594.99,676.31,688.08,689.32,657.67,-0.0501,9.3486,0.8128,-0.0261,0.0811,0.02,right
V,508.88,219.51,201.27,801.26,809.17,-0.5087,9.0646,2.6013,-0.0651,0.0467,-0.0584,left
Q,541.06,208.39,787.05,809.04,795.01,3.1247,5.287,6.8661,0.0045,-0.0155,-0.0629,right
Y,234.13,788.06,806.4,807.23,199.67,0.2777,8.8191,3.9952,-0.0047,0.0108,-0.0005,right
C,486.5,507.03,488.17,485.6,503.6,-0.2487,8.7971,4.161,0.0287,-0.0047,-0.0308,left
N,681.24,779.81,781.07,822.36,812.28,0.2951,9.4772,0.6977,-0.0215,-0.0947,-0.0586,right
U,456.84,223.17,214.93,793.17,807.18,0.0999,9.5378,0.9832,-0.0373,0.0772,0.0144,right
A,709.3,794.62,823.9,801.73,792.26,-0.2693,9.6773,0.7135,0.0408,0.0344,-0.1188,left
W,514.31,187.41,204.5,212.44,790.83,-0.3733,9.2203,1.3538,-0.0056,-0.0017,-0.0062,left
K,483.6,162.57,387.98,767.86,807.98,-0.7476,9.0423,3.0701,0.0145,0.0733,-0.0486,left
K,477.79,178.78,391.01,801.39,788.44,-0.8369,8.9584,3.1105,-0.0017,0.034,-0.0222,left
O,572.89,544.37,558.91,555.82,602.19,-0.1206,8.8746,3.1251,0.0337,-0.0106,0.0253,left
T,630.85,809.62,784.61,793.02,792.57,-0.2197,9.415,-0.0038,-0.0356,-0.0177,0.0638,left
L,205.24,192.81,779.21,822.41,815.98,0.8146,8.1166,4.9372,-0.0283,0.1022,0.0148,right
T,634.07,805.53,797.09,791.51,784.51,0.2425,9.604,0.6076,0.0875,-0.1308,0.0272,right
J,808.46,791.59,785.6,800.07,196.84,0.2254,9.7797,0.1477,3.0892,0.3945,2.0049,left
A,693.33,788.6,799.61,804.06,797.36,-0.2875,9.4893,0.63,0.0123,0.0951,0.1023,left
P,478.35,189.25,497.13,803.71,787.6,-3.21,4.9881,7.5355,0.0031,0.0552,-0.0145,left
M,793.11,798.44,804.97,790.43,786.48,-0.0097,9.8752,0.559,0.0064,0.0391,0.0287,left
D,506.93,228.74,796.66,826.25,820.02,0.0066,9.5211,1.3092,0.026,0.0125,-0.0676,right
C,507.42,497.68,529.8,478.91,496.29,0.1309,8.382,3.8815,-0.024,0.0391,-0.0572,right
V,507.16,216.83,215.3,835.05,792.74,-0.5307,8.8874,2.6008,0.1191,-0.0255,-0.0464,left
L,188.91,195.36,815.35,790.71,832.58,0.4189,7.8366,4.8916,-0.0319,-0.0162,-0.0224,right
E,589.48,706.98,680.86,728.41,687.68,0.2322,9.7845,0.9237,0.0128,0.048,0.1138,right
E,629.46,661.86,694.23,709.0,655.1,-0.1805,9.3542,0.7508,0.0612,0.0406,0.0508,left
G,521.39,200.89,798.64,809.2,781.12,5.0458,5.086,5.949,0.0204,-0.0359,-0.0929,right
R,495.37,184.39,242.48,814.67,809.4,-0.1093,9.1264,1.9162,0.038,-0.0211,0.0346,left
S,731.71,816.15,804.06,799.59,815.16,-0.1824,9.6001,0.079,0.0294,0.0129,-0.0942,left
N,686.46,806.15,779.96,790.51,752.39,0.4677,9.418,0.7837,0.0807,0.036,0.0204,right
C,506.22,488.87,488.73,459.84,501.11,0.5089,8.4197,4.0293,-0.0427,-0.0246,0.0143,right
K,499.31,203.25,364.49,783.16,824.41,1.0526,9.0563,2.8652,-0.075,0.0539,0.0711,right
W,485.4,194.56,217.06,219.47,798.0,-0.5142,9.3023,1.5194,0.0375,0.045,0.0054,left
H,529.62,177.92,177.4,797.7,815.21,-5.0561,5.0301,5.2634,-0.0189,-0.0021,-0.0267,left
L,174.82,199.6,775.45,794.57,813.6,0.472,8.118,4.8577,-0.0205,0.0204,-0.0343,right
X,487.91,507.12,805.76,835.82,813.0,0.475,9.4432,0.9852,-0.0073,-0.0202,0.0019,right
F,359.51,744.86,191.43,217.04,170.69,0.3313,9.2223,2.079,0.006,0.0311,0.046,right
F,384.82,735.61,190.26,219.39,197.85,0.4128,9.1931,1.9348,-0.0193,-0.0682,0.0674,right
X,485.98,486.57,829.94,805.42,797.61,-0.3062,9.3554,0.9314,0.038,-0.0332,0.036,left
U,523.03,216.8,219.5,827.17,781.74,0.0673,9.66,1.0143,0.048,-0.0549,-0.0228,right
A,680.75,816.96,794.43,803.68,792.41,-0.218,9.446,0.6587,0.0686,0.0243,-0.0107,left
N,694.24,800.94,808.42,815.62,817.32,0.3526,9.5037,0.7174,-0.0238,-0.0335,-0.0573,right
Z,514.88,173.76,826.07,780.56,818.36,-0.3552,9.04,2.0881,2.5095,1.4764,0.9648,left
I,807.88,798.75,790.43,798.56,207.27,0.0802,9.9322,0.3203,-0.0458,-0.0862,0.0143,right
V,500.16,222.23,204.1,797.81,783.05,-0.4914,9.0215,2.5071,0.0025,0.0939,0.0431,left
R,505.53,200.22,268.12,765.03,784.19,-0.4948,9.3695,1.827,-0.0016,0.0016,0.0244,left
H,491.9,202.39,186.19,806.96,813.2,-4.9136,5.0714,5.5761,0.0663,0.0354,-0.0524,left
J,810.11,799.1,806.53,773.53,225.63,0.0935,9.5484,0.5405,3.0172,0.5601,1.8774,right
Y,201.63,785.72,804.88,843.03,185.9,0.1562,8.8861,4.1765,-0.0339,0.0484,-0.039,right
W,504.23,201.7,191.57,177.19,776.31,-0.3617,9.3715,1.9226,0.0068,-0.0398,0.0359,left
B,740.53,207.64,177.06,217.92,209.69,0.0827,9.6308,0.1735,0.0184,-0.0227,-0.0363,left
G,493.38,180.44,790.9,795.35,791.67,-5.1914,4.8215,6.2988,-0.1093,-0.0101,-0.0107,left
F,394.53,751.78,181.2,208.66,212.72,-0.3998,9.1977,2.0399,0.0729,0.0345,0.0017,left
V,498.42,197.5,210.74,814.27,788.02,0.4347,8.8028,2.4147,-0.0393,0.0083,0.0555,right
V,454.49,214.9,195.58,796.84,790.01,-0.3425,9.053,2.6335,0.0615,-0.0015,0.0385,left
U,513.0,222.26,221.4,785.28,829.15,-0.006,9.6029,1.0385,-0.0037,0.0651,0.0349,right
E,604.82,689.97,686.16,665.85,694.91,-0.0553,9.2579,0.6222,0.0427,-0.0292,0.1253,left
Q,496.1,226.12,774.94,814.53,775.8,-2.9539,5.7764,6.7899,0.0552,0.024,-0.0207,left
M,801.4,791.12,805.24,815.01,809.63,-0.3771,9.6247,0.6255,-0.0031,-0.0381,0.0357,left
T,619.57,813.96,785.59,786.84,795.08,-0.1668,9.3302,0.4846,0.0311,-0.0918,0.0423,left
B,702.66,210.08,215.89,206.39,181.39,0.1323,9.4717,0.2201,0.0184,0.0091,-0.0143,left
E,643.25,682.71,689.73,680.04,700.83,0.0397,9.6592,0.9974,-0.0361,-0.0357,-0.059,left
S,754.77,767.14,792.26,812.79,818.59,0.0058,9.6011,0.3379,-0.0131,0.0378,0.056,right
A,658.98,789.72,784.31,791.73,805.01,-0.0629,9.8924,0.3213,-0.0599,0.0182,0.0604,right
C,505.93,513.08,497.41,482.54,480.41,-0.4028,8.533,3.8625,-0.0159,0.0261,0.0611,left
Q,503.83,203.09,810.01,809.64,818.49,-2.9654,5.6526,6.9489,-0.1215,0.0733,0.0514,left
O,535.87,537.05,566.68,542.15,554.55,0.0016,8.9548,2.9239,0.0444,-0.0618,-0.0634,right
W,505.0,186.18,191.96,218.76,808.29,0.0518,9.1282,1.7786,-0.0516,0.0193,-0.0187,right
A,684.63,813.92,799.99,784.65,778.83,-0.0455,9.4951,0.5951,-0.0104,0.0285,0.0037,right
U,469.99,223.88,179.95,779.87,809.24,-0.3083,9.5788,1.1168,-0.0504,0.021,0.0564,right
P,486.03,194.46,486.04,780.87,802.01,2.9549,5.1308,7.777,0.0112,-0.0353,0.0939,right
B,722.99,186.1,198.74,196.59,196.29,0.2516,9.9229,0.134,0.0116,0.0253,-0.0104,right
L,184.61,206.67,829.24,807.48,795.34,-0.4881,7.8831,4.9158,-0.0669,0.0337,0.0012,left
H,486.55,209.86,222.83,775.87,781.52,5.1456,5.1149,5.5747,0.0009,0.0269,0.0502,right
F,383.92,743.08,191.57,204.2,183.45,0.3858,9.3199,1.8007,-0.0322,-0.0289,0.0325,right
P,500.4,184.0,512.94,782.3,825.76,3.1811,5.0941,7.6091,-0.0944,-0.0419,-0.0502,right
A,671.17,788.62,790.65,792.82,783.93,0.0055,9.6456,0.3922,-0.0423,-0.0534,-0.0928,right
O,551.28,537.6,572.71,543.98,542.61,0.045,8.8622,3.1722,0.001,0.0265,-0.0526,right
M,812.81,796.65,815.14,812.77,819.57,0.0738,9.3658,0.5064,-0.0489,-0.012,-0.0111,right
D,499.17,190.99,806.27,773.92,806.85,-0.48,9.5947,1.4287,0.0082,-0.0728,0.0012,left
H,473.27,192.73,177.49,793.93,819.76,-4.9657,4.9135,5.5017,0.1073,-0.0058,-0.055,left
U,501.69,202.32,182.18,779.55,797.12,-0.1486,9.6733,1.2436,-0.0089,0.0507,-0.0458,left
C,516.09,492.78,506.09,495.58,509.57,-0.0934,8.3414,4.4323,0.0556,-0.0839,-0.0157,left
U,494.57,206.33,238.4,789.85,806.42,0.1909,9.8194,1.0553,0.0011,0.0413,0.0714,right
P,509.3,201.02,518.99,790.11,815.78,2.9918,5.1345,7.5616,0.0237,-0.0876,0.0427,right
Y,200.78,790.89,777.33,798.32,197.43,0.1629,8.8302,3.917,0.0781,0.0109,-0.0425,right
T,627.55,814.34,803.93,783.96,792.45,0.3477,9.5332,0.389,-0.0057,-0.0173,0.041,right
S,764.14,787.45,794.33,793.41,819.34,0.1483,9.7845,0.3843,-0.0405,-0.0867,0.0383,right
W,515.37,197.96,183.66,214.84,796.02,0.5008,9.3591,1.5435,-0.0367,0.0519,-0.0301,right
W,499.16,216.11,218.23,189.74,797.29,0.1967,9.167,1.4703,0.0172,0.021,-0.0041,right
D,502.79,179.23,796.09,797.38,822.2,-0.0208,9.571,1.5222,-0.0241,0.0088,-0.0013,left
C,498.81,483.34,504.87,473.68,485.11,-0.262,8.4457,4.2097,-0.0124,-0.0317,-0.0921,left
L,207.04,193.2,801.03,782.85,789.21,0.4936,8.0198,4.7057,0.0463,-0.0101,-0.0531,right
T,609.66,822.71,826.4,801.09,790.49,-0.1525,9.5388,0.6099,0.0018,0.0657,-0.03,left
W,490.21,190.3,212.12,191.99,810.62,0.4796,9.5604,1.5751,-0.0297,0.0083,-0.0661,right
R,501.21,203.68,274.36,806.85,798.99,0.3238,9.4113,1.7692,-0.0454,-0.1416,0.0507,right
W,481.29,186.92,210.33,214.11,786.96,0.3041,9.2805,1.5128,0.0503,-0.0098,0.0357,right
B,743.25,208.1,188.14,201.55,180.46,0.1019,9.5288,0.4735,-0.0147,-0.0542,-0.047,left
N,655.42,833.52,770.68,804.29,796.29,-0.2162,9.595,0.633,0.0176,0.0884,-0.0039,left
S,746.67,802.53,802.38,787.59,837.29,0.0727,9.628,0.5219,-0.0416,-0.0691,-0.0128,right
V,496.93,193.89,190.55,807.96,802.83,-0.3437,8.8368,2.4899,-0.0559,-0.0502,-0.0125,left
I,813.37,812.14,791.56,813.59,214.29,0.293,9.7024,0.4754,-0.0338,0.0257,-0.0253,right
E,608.46,686.86,697.03,694.7,660.12,0.0264,9.5072,0.6767,0.001,0.0261,-0.0225,right
O,536.5,531.26,530.33,597.85,560.8,-0.1072,9.2029,2.8167,-0.0215,0.0328,0.0003,right
M,786.49,810.21,804.76,781.17,796.58,0.0404,9.9034,0.8136,0.0265,-0.0522,0.0331,left
J,801.92,768.39,805.14,788.22,188.88,-0.0852,9.5861,0.368,2.99,0.4972,2.0603,left
L,194.74,199.25,802.79,819.72,785.38,0.4181,7.7454,4.9398,-0.0297,0.0644,0.0082,right
F,363.17,738.66,198.41,184.4,226.02,-0.5658,9.1902,2.039,0.0736,-0.0388,-0.0093,left
G,506.84,202.99,788.27,779.52,793.24,-4.7682,5.063,6.0102,-0.0165,0.0345,-0.0263,left
N,656.06,807.01,802.34,843.07,812.62,0.3277,9.55,0.4097,0.0107,0.0503,0.0262,right
Q,502.27,213.04,785.03,778.33,812.72,-3.1179,5.4706,7.0532,-0.0207,-0.0163,-0.0575,left
X,507.87,507.49,802.52,803.8,765.36,0.3302,9.3396,1.2746,0.0215,0.0063,-0.0204,right
M,773.68,794.68,803.66,794.71,818.19,0.1037,9.8502,0.5889,0.0057,-0.0528,-0.0092,right
A,661.97,813.27,777.48,822.97,789.2,-0.066,9.7285,0.5121,-0.0628,-0.0221,0.0784,left
J,800.85,787.06,791.68,802.47,166.78,-0.1094,9.7278,0.5399,3.0994,0.4843,1.9133,left
C,482.47,498.58,534.45,524.58,471.82,-0.2453,8.624,3.926,-0.0551,0.0331,0.005,left
G,489.95,193.46,783.12,792.52,787.57,5.0613,5.2477,6.1295,-0.0422,-0.0012,-0.0224,right
S,724.72,772.37,813.29,790.19,826.64,0.1856,9.6896,0.3393,-0.0246,-0.0259,0.0136,right
L,210.51,196.9,806.33,779.61,825.0,0.5924,8.1432,4.8321,0.0924,0.0181,0.0434,right
D,492.98,213.24,831.98,787.04,810.33,0.2467,9.2664,1.621,0.0324,0.0854,-0.0424,right
G,529.3,189.4,805.82,836.02,819.17,-5.1006,4.7713,5.7666,0.0328,-0.0054,-0.0092,left
H,488.44,190.94,213.96,797.82,798.43,-5.0773,4.798,5.6707,0.0007,0.0609,-0.0434,left
J,821.3,810.21,757.45,810.71,225.23,0.0657,9.3817,0.5213,3.1241,0.4507,1.9526,right
Y,208.98,794.41,829.89,798.78,235.55,0.0202,8.6471,3.6703,-0.0377,-0.0731,0.0688,left
J,807.69,799.72,776.77,795.27,214.71,-0.0364,9.9232,0.3584,2.9613,0.5575,2.0857,right
G,499.31,202.04,806.34,804.39,783.98,4.8808,5.069,6.2126,0.0276,0.0051,-0.001,right
I,827.44,785.07,778.35,815.72,196.62,-0.0879,9.8155,0.3814,0.0235,-0.036,0.0565,left
M,821.17,820.31,802.62,805.2,799.41,-0.2637,9.6652,0.7793,-0.0139,0.0493,0.0014,left
E,627.9,683.65,676.68,691.25,679.62,0.0042,9.5053,0.6883,0.0038,0.0089,0.0538,right
U,504.8,193.43,230.86,797.77,815.11,-0.3222,9.6854,1.1566,0.0357,-0.0077,0.0714,left
S,721.01,816.68,797.72,811.27,775.42,-0.111,9.8635,0.2436,-0.0382,-0.0393,0.0024,left
Z,528.56,191.6,795.61,824.91,792.27,-0.5975,8.6485,2.1629,2.547,1.4829,1.0019,left
Y,206.73,828.39,815.02,798.12,206.98,0.0192,9.066,3.9314,-0.1036,-0.0391,-0.0486,right
J,795.74,776.26,814.46,792.95,176.37,0.0452,9.7069,0.42,3.0403,0.5285,1.9731,left
Z,470.06,225.53,793.84,783.39,802.5,0.3859,8.9568,1.9919,2.5284,1.5552,0.9852,right
U,488.5,201.45,200.15,804.83,824.3,-0.2309,9.7778,0.9689,-0.0152,-0.0347,0.0166,left
Z,521.43,180.98,766.79,791.54,825.01,-0.4297,8.9386,1.785,2.5369,1.623,1.0007,left
M,777.86,828.66,808.28,786.3,807.31,0.0963,9.663,0.5999,-0.0308,-0.039,-0.1209,right
D,484.67,223.71,812.16,797.24,776.88,0.1679,9.5861,1.5255,0.0505,0.0613,-0.0042,right
H,504.77,175.94,188.31,794.91,781.44,5.1368,5.1347,5.5737,0.0649,-0.0146,-0.0077,right
K,495.12,192.02,366.3,840.26,805.3,1.0674,8.9377,3.0014,-0.007,-0.0339,0.0454,right
A,676.38,813.72,766.06,809.75,805.78,-0.0454,9.6445,0.3286,-0.0394,0.0079,-0.0483,right
A,669.08,801.09,802.29,788.26,797.44,0.088,9.6694,0.4747,-0.0246,0.0394,-0.0427,left
A,690.67,801.75,786.37,773.53,797.38,-0.116,9.7258,0.2228,-0.0753,-0.0391,0.0274,left
I,794.45,811.46,824.63,788.41,176.22,-0.3939,9.6011,0.2355,0.0385,-0.0043,0.076,left
W,470.65,230.66,168.8,194.12,801.52,0.132,9.1746,1.4995,0.0296,0.039,-0.0294,right
B,741.02,201.46,198.57,193.49,197.04,0.1221,9.7869,0.3874,-0.0043,-0.118,0.0045,left
M,811.71,791.68,790.02,790.37,800.17,0.1129,9.6791,0.5631,-0.0448,0.0366,-0.0998,right
W,496.42,215.67,190.71,210.87,820.79,-0.3696,9.5936,1.6308,-0.0121,-0.158,-0.031,left
O,572.91,565.01,563.68,559.33,551.47,-0.2879,9.1387,3.2441,-0.0356,-0.0093,-0.0271,right
H,505.83,210.71,199.34,786.01,764.95,5.0861,4.9505,5.4742,0.0158,-0.0084,-0.0084,right
M,826.09,786.64,779.18,797.51,788.04,0.1147,9.5248,0.599,0.0809,-0.0248,0.0747,right
G,515.65,198.46,803.24,827.43,807.99,-5.1437,5.2008,6.3115,0.0177,-0.0123,0.019,left
D,519.05,215.74,819.18,803.21,842.51,-0.046,9.7715,1.7,0.0416,-0.067,-0.08,left
G,511.16,196.2,801.43,809.76,819.73,-4.9428,4.6935,6.0818,0.0455,-0.019,0.0459,left
B,707.48,187.01,197.81,187.84,183.19,-0.0836,9.9192,0.1085,-0.0485,0.0712,0.0089,left
E,610.87,687.69,693.18,662.34,681.94,-0.0222,9.7461,0.6393,0.0058,0.0486,0.0227,right
N,699.06,786.1,804.84,808.97,813.56,0.1618,9.8244,0.6042,0.0091,-0.0321,-0.0254,right
X,503.31,497.39,772.21,794.77,786.48,0.4774,9.6447,1.4271,0.083,-0.0004,0.0626,right
N,672.07,802.46,800.05,784.35,808.12,-0.2874,9.3152,1.1147,-0.0341,-0.0373,0.0882,left
H,490.93,194.34,225.68,795.09,778.13,-5.0403,4.8229,5.502,0.0446,-0.0808,-0.046,left
H,510.06,198.74,185.66,811.77,802.72,-4.9334,4.851,5.4305,0.0175,-0.0136,0.0503,left
E,611.78,656.7,702.83,668.64,678.07,0.0933,9.637,0.7607,-0.0376,-0.1176,0.0263,right
H,478.25,192.05,185.05,801.04,826.79,-4.8502,4.8915,5.3482,0.0718,-0.0575,-0.0242,left
H,486.29,196.14,206.29,802.81,819.07,4.5245,5.0408,5.5559,-0.0836,0.008,-0.0633,right
W,489.63,190.87,190.03,226.19,816.21,0.2168,9.2748,1.2585,-0.0361,-0.0489,-0.0071,right
J,789.23,807.51,805.91,809.12,198.06,0.0245,9.8448,0.5332,2.934,0.5532,2.0825,right
F,389.27,765.11,184.38,163.76,190.78,0.515,9.1786,1.961,-0.0251,-0.0323,-0.0414,right
K,489.63,175.7,369.18,795.85,805.94,-0.6571,9.018,3.1366,0.0603,-0.0409,-0.006,left
S,752.81,825.26,774.63,797.22,810.24,-0.167,9.4454,0.3332,-0.0412,0.0469,0.0448,left
S,713.39,788.15,795.99,803.7,798.23,-0.2052,9.7333,0.3119,0.0814,-0.0613,0.0681,left
Q,480.28,197.54,795.87,813.53,803.76,-3.0265,5.387,7.0667,-0.0855,-0.0415,0.0216,left
D,490.23,201.36,800.15,798.9,789.31,0.2929,9.4094,1.6418,0.0356,-0.0063,0.0172,right
H,496.84,203.01,186.62,788.6,779.9,5.2017,4.977,5.4038,0.0574,0.0673,-0.0159,right
Y,218.38,817.45,796.53,812.68,194.01,0.0391,8.6509,3.9963,0.0679,0.0005,0.1089,right
F,375.88,724.91,183.79,188.87,180.13,-0.6915,9.1519,1.754,-0.0705,-0.0072,-0.0016,left
C,498.72,527.82,521.02,495.51,490.91,-0.2946,8.5255,3.9123,-0.0107,-0.0569,0.0542,left
F,375.97,713.19,208.41,247.91,213.08,0.3505,9.1824,1.9822,-0.0636,-0.0702,-0.0071,right
L,204.65,207.76,793.68,819.21,794.09,0.327,8.1854,4.9417,0.0472,0.0567,0.004,right
Q,481.55,184.49,806.91,814.79,813.5,-3.2654,5.4106,7.0362,0.0087,0.0169,0.0354,left
W,527.14,232.96,223.84,200.16,799.95,0.3846,9.505,1.2869,0.0419,-0.1252,-0.0373,right
G,511.58,222.87,812.15,800.2,795.58,5.2075,5.1669,5.9478,-0.0015,0.028,0.026,right
E,611.94,680.14,697.66,674.66,667.45,0.2487,9.552,0.9307,0.0173,0.0352,0.051,right
X,512.04,501.13,796.37,803.92,810.38,-0.4021,9.285,1.0257,-0.0355,0.0576,-0.073,left
J,809.48,781.93,791.23,834.41,201.92,-0.077,9.6857,0.3787,2.962,0.5252,1.9665,right
C,484.76,517.55,508.05,493.09,494.26,0.2383,8.5835,3.9963,-0.1123,-0.0403,-0.036,right
L,204.64,187.66,784.32,781.74,799.87,-0.7466,8.2375,4.8191,-0.0812,-0.0572,0.0065,left
B,730.1,207.68,178.53,198.29,205.58,0.1501,9.8593,0.0992,0.0033,-0.0339,-0.0269,right
G,517.9,198.59,809.93,813.2,812.51,-4.8792,5.0431,6.3558,0.0804,0.0152,0.0284,left
U,529.19,188.38,166.41,806.09,797.74,-0.0301,9.6251,0.8949,0.0233,0.0119,0.0154,left
B,715.59,178.38,210.38,201.25,221.02,0.2874,9.678,0.1005,0.006,-0.0363,0.0266,left
K,514.72,209.9,374.77,783.75,788.87,1.3071,9.0093,3.1302,0.0292,0.0136,0.0224,right
B,744.32,209.84,191.41,194.43,214.05,0.0679,9.6443,0.4107,0.0165,-0.0224,0.097,right
I,798.54,802.4,792.7,807.03,207.38,0.0021,9.8636,0.4238,-0.0107,0.0589,-0.0075,left
Q,497.67,202.5,788.95,785.6,835.29,-3.0995,5.4752,6.9904,-0.0248,0.0523,-0.0397,left
E,612.36,690.75,677.24,678.15,664.98,0.4186,9.2603,0.4958,-0.0262,0.01,0.0887,left
L,184.43,218.03,778.33,798.42,793.04,0.5335,8.0712,5.0929,0.0381,-0.0745,0.0232,right
V,490.1,200.61,208.51,815.37,805.28,-0.5098,8.7794,2.623,0.0023,-0.0313,0.074,left
B,744.01,199.94,202.71,203.31,186.61,-0.0226,9.5902,0.2329,-0.0808,-0.0075,0.0131,left
P,505.7,194.88,496.33,773.05,802.24,-3.0612,4.9602,7.3397,-0.1004,0.0215,0.0112,left
V,498.56,186.32,197.1,809.92,766.48,0.2907,9.1408,2.6629,-0.0038,-0.0306,-0.0105,right
M,785.75,783.94,800.29,808.8,797.33,-0.3785,9.5294,0.7297,0.0163,0.019,-0.0209,left
W,495.61,247.03,191.2,189.98,772.68,0.3205,9.2387,1.4716,0.0979,0.0079,-0.0216,right
E,618.43,669.19,690.22,694.2,672.92,0.1086,9.7615,0.2972,-0.0862,0.02,-0.0465,left
F,392.01,729.38,210.14,203.79,167.13,0.2982,9.1119,2.1776,0.0816,0.0341,0.0711,right
V,484.79,180.02,201.87,792.44,791.12,-0.5616,8.9519,2.4596,-0.0356,0.0902,0.0976,left
E,625.49,671.17,671.94,673.06,673.26,0.0475,9.6058,0.7061,-0.007,0.0317,0.0237,left
E,609.12,688.81,701.86,684.83,660.9,0.0133,9.6122,0.6708,-0.063,-0.0191,0.0434,left
T,608.98,808.45,809.27,761.4,804.99,0.1741,9.7716,0.2555,0.0023,0.0209,0.0709,right
B,741.25,173.03,211.62,177.4,191.44,-0.1829,9.8426,0.0219,-0.0466,-0.0083,0.0212,left
B,743.21,194.26,223.38,185.27,225.93,-0.2297,9.6703,0.2768,-0.0347,0.0352,0.0311,right
I,808.64,821.91,785.95,816.27,221.34,-0.1101,9.7674,0.5055,-0.0046,0.0834,-0.0261,left
W,487.81,190.76,213.25,207.29,802.99,0.2979,9.3592,1.5039,0.0444,-0.0367,0.0139,right
U,488.92,193.6,211.92,775.97,790.66,0.1151,9.524,0.9312,0.0294,0.0653,-0.0134,right
L,210.07,187.48,798.6,791.44,775.62,0.4116,8.0883,5.0027,0.0511,0.0371,-0.0272,right
C,488.36,500.49,496.37,504.2,488.81,0.518,8.5925,3.9468,-0.0093,-0.0454,0.0131,right
K,485.71,207.9,380.26,815.78,816.79,-0.6643,8.9262,2.8827,-0.021,0.0156,0.0707,left
G,517.44,216.07,810.89,827.79,802.48,-5.1211,4.9208,6.0029,0.0419,-0.0531,0.0408,left
S,756.18,798.31,783.4,818.89,776.72,-0.0984,9.6638,0.3726,0.0615,-0.0663,-0.0689,right
C,505.97,473.17,506.65,481.68,480.2,0.2593,8.7046,4.3633,-0.0173,0.0629,0.0574,right
W,495.53,207.39,198.79,210.22,790.86,-0.2237,9.4307,1.5109,0.0327,0.0089,0.0011,left
I,798.61,802.06,798.04,795.51,207.64,-0.0394,9.6844,0.3891,-0.0404,0.0051,0.046,right
R,481.43,195.24,238.86,797.32,813.55,0.4246,9.2112,1.6046,0.0038,-0.019,0.0884,right
D,485.84,220.9,814.21,828.11,808.34,0.1525,9.4215,1.3993,0.0419,-0.074,-0.0711,right
V,477.21,185.41,204.31,780.01,796.36,0.4203,9.0474,2.5861,-0.0305,-0.0186,0.0583,right
Z,497.15,195.73,805.29,806.75,824.92,-0.5012,9.1095,1.9589,2.5322,1.5352,1.0121,left
W,510.5,217.49,189.83,204.59,810.24,0.557,9.2251,1.3101,-0.0871,0.0115,0.0432,right
Z,509.97,205.12,792.4,797.56,802.21,0.5418,9.0001,1.9311,2.5017,1.5485,1.0348,right
C,537.01,481.09,498.09,492.3,513.81,0.0394,8.5633,3.9339,-0.0234,-0.0276,-0.0419,right
C,521.78,514.09,480.35,514.64,511.2,-0.287,8.6741,4.475,0.0626,-0.0053,-0.0215,left
Z,476.08,196.08,809.41,784.43,799.75,-0.3034,9.156,1.878,2.4358,1.5214,0.9537,left
J,828.21,812.54,790.27,812.26,197.13,0.2136,10.0394,0.2155,3.0071,0.5274,1.8731,right
Y,191.74,809.74,809.8,796.1,197.33,0.2484,8.6837,4.1081,-0.0591,-0.0188,0.0206,right
D,505.34,217.95,789.61,812.77,783.22,-0.35,9.4011,1.4595,-0.0299,-0.0396,-0.0891,left
O,542.57,568.62,570.3,559.38,568.95,-0.005,9.2351,3.0564,0.0081,-0.0342,0.0259,right
U,511.7,211.98,232.76,799.82,788.12,-0.1001,9.5684,1.0089,-0.0003,-0.0537,-0.0753,left
N,681.49,801.7,801.02,803.2,796.24,0.3782,9.396,0.7824,-0.0195,0.0202,0.0281,right
E,621.66,632.49,660.79,668.95,678.3,-0.0162,9.7582,0.7217,-0.0601,0.0393,0.0336,right
W,482.99,229.52,210.76,196.79,816.49,-0.4251,9.3436,1.4874,0.0701,-0.0551,0.0198,left
K,494.58,182.75,343.72,785.09,820.85,1.2408,8.9444,2.9331,-0.0552,-0.0575,0.0834,right
Y,196.54,795.62,792.3,810.91,194.81,-0.3811,8.8072,4.3694,0.0655,-0.0052,-0.0705,left
J,780.52,789.63,813.08,798.04,198.71,-0.0065,9.6891,0.5253,3.0555,0.5318,2.0512,right
I,803.55,811.17,831.47,829.82,200.78,-0.1179,9.5559,0.2716,0.0293,-0.0649,0.0506,left
P,492.92,204.82,519.53,809.62,805.38,-3.0225,4.8793,7.4427,-0.0443,0.033,-0.0118,left
W,481.88,205.11,217.6,183.48,795.08,0.2093,9.4654,1.5323,-0.0153,-0.0488,-0.0068,right
V,486.0,229.08,209.38,785.94,820.22,-0.4572,8.8775,2.5532,-0.0199,-0.037,-0.0036,left
L,188.52,212.91,803.37,819.97,804.9,-0.545,7.7293,5.1447,0.0356,-0.007,-0.0449,left
L,187.42,219.17,792.03,814.35,799.4,-0.3798,8.0803,5.0183,-0.0114,-0.0016,0.047,left
K,496.59,220.31,377.86,805.02,810.91,1.2312,8.9505,3.2984,0.0492,0.0506,0.0419,right
M,828.03,800.84,796.4,804.34,814.62,-0.0012,9.8059,0.574,-0.0083,0.0119,0.0019,right
X,520.35,500.44,793.84,801.76,811.83,0.3766,9.569,1.0568,-0.0817,-0.0187,-0.0282,right
Z,500.8,188.46,820.16,814.94,811.39,0.5208,9.3007,2.2772,2.472,1.4587,1.0694,right
W,502.47,216.6,208.28,214.44,801.5,-0.174,8.9982,1.8266,0.0041,-0.0157,-0.0017,left
I,810.05,805.72,815.26,829.12,220.78,0.0068,9.6136,0.1495,0.0137,-0.0282,-0.006,right
M,780.11,794.58,797.71,780.42,773.46,0.3992,9.517,0.558,0.0677,-0.0789,0.0258,right
A,683.1,816.68,834.64,799.3,807.15,-0.322,9.7968,0.4202,0.0629,-0.0492,-0.0035,left
F,382.92,733.87,178.19,181.67,225.46,-0.3918,9.352,2.1326,-0.0135,-0.012,0.0133,left
U,490.37,177.24,209.44,789.46,785.35,0.171,9.6007,0.9906,0.0625,0.0081,-0.0635,left
H,488.13,196.81,210.53,823.39,820.94,5.3049,4.9773,5.4529,0.0307,-0.0077,-0.0096,right
U,492.48,204.67,212.49,794.17,798.13,0.1055,9.7781,1.1086,0.064,-0.003,0.0497,right
T,604.19,812.08,820.06,785.09,796.14,-0.5221,9.5551,0.5603,0.0366,-0.0199,0.1162,left
P,505.52,225.09,504.78,804.86,774.54,-3.1085,4.7214,7.4895,-0.0206,0.0419,0.0708,left
M,813.74,797.26,813.89,761.7,800.32,0.1704,9.571,0.5016,-0.0087,-0.0409,-0.0309,right
A,681.06,804.3,832.29,803.66,795.56,0.1168,9.9224,0.5178,0.026,0.0598,-0.0256,right
E,641.69,671.48,687.94,684.37,684.34,0.0328,9.7368,0.6694,0.0496,0.0083,0.002,left
I,827.76,771.69,797.99,777.51,201.78,0.0718,9.6819,0.134,-0.0685,0.0964,0.0531,left
K,495.98,213.1,350.56,787.45,774.64,0.861,8.8814,3.0589,-0.0131,0.0285,0.057,right
A,681.34,795.36,771.64,836.88,779.59,-0.4194,9.6305,0.3146,-0.0403,0.0457,0.0266,left
G,503.84,208.48,791.54,768.59,802.45,-5.0855,5.3548,6.3204,-0.0481,-0.0243,-0.0231,left
W,491.98,199.46,207.79,179.74,766.75,0.3242,9.1066,1.664,0.0133,-0.0029,0.0405,right
H,507.33,210.03,225.71,796.78,790.86,5.1694,5.0288,5.5683,0.0294,0.054,-0.0827,right
A,702.13,781.8,803.09,777.84,811.2,-0.2136,9.9042,0.485,0.0377,0.0237,0.0225,left
Y,203.79,817.88,778.63,798.71,199.45,0.1599,8.7981,4.0563,-0.0079,0.039,0.047,right
O,547.73,567.28,585.48,564.62,551.65,-0.1056,8.8594,3.0047,0.0575,-0.0084,0.0642,right
F,387.11,724.4,187.97,206.3,190.95,-0.6543,9.1983,1.8626,-0.0137,0.0642,-0.0088,left
U,503.18,195.82,182.13,783.6,812.23,-0.1082,9.6651,0.7822,0.0962,0.0205,-0.08,left
F,384.68,722.38,185.21,178.17,185.17,-0.4272,9.3485,1.6946,-0.0551,0.0352,0.0233,left
I,779.07,787.43,800.53,765.92,204.92,-0.1528,9.4593,0.2819,0.0155,-0.0364,0.0209,left
Q,501.29,188.5,806.44,785.9,775.6,3.0414,5.5878,6.8833,-0.0164,-0.0698,0.0486,right
R,494.09,210.63,277.4,782.21,802.53,0.3444,9.3224,1.6682,-0.1591,0.0596,-0.0533,right
A,684.1,817.16,816.12,785.73,805.13,-0.0357,9.6941,0.3134,-0.001,-0.0529,-0.041,left
M,796.65,800.94,778.49,798.36,807.92,-0.1894,9.4756,0.493,-0.0363,-0.0416,0.0405,left
T,613.18,852.09,801.17,818.94,818.61,0.2952,9.5715,0.3741,0.1088,-0.0318,0.0248,right
R,488.69,216.49,241.11,816.48,818.2,-0.2433,9.5102,1.7649,-0.0266,0.0288,-0.0429,left
Q,480.08,184.94,826.26,819.6,808.17,-3.0235,5.1313,7.035,-0.0648,0.0061,0.001,left
W,482.39,182.25,201.41,218.71,795.81,-0.2558,9.2979,1.7051,0.1211,-0.0145,-0.0661,left
R,505.17,206.96,274.95,814.59,807.73,-0.4651,9.4609,1.8026,0.0106,0.0454,0.0276,left
G,505.06,205.5,810.26,760.33,803.94,-4.9942,4.9537,5.9001,0.044,0.057,0.0982,left
H,507.21,203.14,210.67,804.62,790.23,4.9541,4.7408,5.4622,0.0269,0.0703,0.0767,right
C,492.19,502.12,515.04,500.64,507.98,0.177,8.6047,3.8769,-0.0844,0.0393,-0.0391,right
R,489.54,201.66,259.93,815.36,789.48,-0.1446,9.4259,1.9707,-0.0065,-0.0639,0.0022,left
D,496.67,202.31,773.28,791.48,810.0,-0.1722,9.2953,1.2602,-0.0674,-0.0278,-0.0439,right
A,672.71,801.22,815.88,794.59,799.44,0.2438,9.3961,0.2615,-0.0171,-0.085,0.0223,right
C,524.62,508.76,507.19,495.38,492.22,0.1533,8.3744,3.8674,-0.057,0.0439,-0.0093,right
T,604.79,803.39,791.21,800.97,802.61,-0.2168,9.5574,0.5595,0.0326,0.0276,0.1312,left
B,736.1,227.01,188.2,221.25,185.75,-0.1917,9.9355,0.212,-0.0209,0.0719,0.024,left
J,797.35,821.15,804.92,802.85,189.55,-0.0291,9.6285,0.1048,2.9265,0.4885,1.9944,left
Y,201.77,825.19,812.48,797.45,188.15,0.2782,9.0109,3.6866,0.0073,0.0452,-0.0103,right
W,493.12,193.98,187.23,199.73,795.68,-0.3461,9.3963,1.3083,0.0107,-0.0406,0.1008,left
O,573.3,590.81,557.86,553.31,566.45,-0.1563,8.9896,2.9226,-0.0071,-0.0927,-0.0152,right
Q,492.12,172.13,777.93,813.59,787.99,-3.1945,5.4928,6.9397,0.0279,-0.0049,-0.078,left
L,197.18,201.49,811.0,796.45,782.2,-0.7546,8.083,4.8633,0.0243,0.0218,-0.0029,left
L,219.05,187.87,797.82,815.18,815.41,-0.4818,8.0811,5.0861,-0.1109,-0.0796,-0.0147,left
Y,208.86,824.51,820.62,802.09,194.04,0.2662,8.8548,3.891,0.0483,0.0572,-0.0197,right
C,517.21,516.05,497.31,491.44,517.46,0.2469,8.5493,3.7655,0.013,0.0226,0.0077,right
U,497.54,209.63,191.9,811.4,805.62,0.2339,9.4074,0.9303,-0.0433,0.0162,0.0262,right
D,505.55,217.19,791.23,809.92,807.3,0.0657,9.4694,1.3751,0.0261,-0.0682,0.0062,right
J,799.12,784.93,787.91,772.2,208.88,0.0839,9.7007,0.2523,3.0093,0.4503,1.9957,right
X,499.41,495.07,823.44,821.59,809.34,-0.5749,9.2984,1.0625,-0.0397,0.0406,-0.024,left
K,480.72,191.42,366.03,795.86,811.43,-1.113,9.1044,3.1239,-0.0452,0.1078,-0.0131,left
B,758.64,198.54,202.17,193.09,205.33,-0.0593,9.6337,0.4056,-0.0076,-0.0047,-0.0025,right
E,604.0,701.88,703.92,664.36,665.98,-0.0727,9.5927,1.0555,0.0177,-0.0112,-0.0511,left
K,530.21,215.1,411.35,789.8,783.22,0.8195,8.7678,3.0993,-0.0251,-0.0773,-0.011,right
F,369.8,733.7,186.19,174.46,172.01,-0.3438,9.3001,2.0596,-0.005,-0.0826,0.0214,left
M,798.54,774.95,801.78,790.96,793.53,-0.1999,9.4887,0.7496,0.0441,-0.1222,-0.0173,left
P,495.78,217.74,500.97,791.49,805.58,-3.1106,4.9681,7.4694,-0.0104,0.0099,-0.0106,left
A,687.33,811.99,788.78,779.54,797.66,-0.1528,9.5774,0.3609,0.0018,0.0557,-0.0142,left
J,785.71,809.6,796.79,813.4,208.9,-0.0388,9.5543,0.6316,3.0136,0.5178,1.9903,right
N,676.57,801.54,805.78,802.56,806.54,0.247,9.4091,0.5882,-0.0438,0.0347,0.039,right
H,493.93,211.08,209.21,795.51,817.68,-4.9055,5.0862,5.4118,0.0296,0.0273,0.0049,left
G,484.58,214.51,797.43,796.28,792.2,4.9514,4.9532,6.222,0.0386,0.0098,-0.0882,right
J,785.91,818.24,798.37,801.36,204.17,-0.2979,9.8966,0.5046,2.9671,0.4704,2.1178,left
K,499.49,211.57,372.06,784.35,811.02,-1.0179,8.9266,3.2564,-0.0642,-0.0581,-0.0376,left
Q,529.38,189.8,775.7,796.63,804.52,-2.5746,5.643,6.9751,0.0567,-0.0256,0.0106,left
C,493.45,502.96,497.34,491.75,492.33,-0.3432,8.6484,3.9495,-0.0056,-0.0051,0.0267,left
L,181.18,205.82,825.45,804.01,783.86,0.5557,8.1002,5.0818,0.0436,0.0554,0.0555,right
I,804.11,778.27,813.58,754.24,200.12,0.0381,9.4418,0.5719,-0.0305,-0.0003,0.0223,right
P,504.88,216.42,485.15,816.98,781.41,-3.1866,5.154,7.4185,0.0481,0.0726,0.0178,left
O,533.99,554.41,588.66,600.49,555.22,-0.1155,9.133,2.9891,-0.051,0.0404,0.0067,right
E,599.68,677.67,684.9,707.15,674.32,0.0839,9.8114,0.8086,-0.0288,-0.0106,0.0502,right
F,380.43,730.91,193.84,206.57,200.79,0.698,9.3776,2.1973,-0.0328,-0.0359,0.0564,right
G,502.47,193.57,793.85,787.9,774.48,4.9956,4.8895,6.1753,-0.035,0.0405,-0.0969,right
R,490.43,198.33,252.54,773.55,791.82,-0.2451,9.437,1.8447,0.0098,-0.017,-0.1054,left
F,402.3,743.43,184.33,204.37,181.7,-0.4808,9.4203,2.306,0.0543,-0.0516,-0.026,left
R,519.99,219.04,270.8,801.01,802.08,0.2825,9.2469,1.6617,-0.0226,0.0099,0.0503,right
Y,218.99,781.96,818.0,828.94,204.16,-0.1222,8.6571,4.0727,-0.0763,-0.0071,0.0773,left
Z,510.85,225.89,808.61,803.49,807.14,-0.6499,8.8037,1.8093,2.4917,1.4876,0.9955,left
Q,498.42,193.01,805.46,823.29,810.81,2.9155,5.5446,6.9947,-0.0018,0.0637,0.0373,right
K,518.93,213.83,370.34,798.7,773.29,-1.1022,8.7428,2.7393,-0.0262,-0.0269,-0.0868,left
Z,479.46,213.66,777.15,802.67,787.47,0.4597,9.2079,2.0059,2.5027,1.4722,1.0143,right
O,559.91,557.27,573.21,555.28,570.04,-0.153,9.0178,3.2015,-0.0317,-0.0382,-0.0712,right
B,726.89,200.31,190.01,182.37,198.99,0.0782,9.8229,0.1153,0.0491,-0.0658,0.0182,left
L,192.43,199.05,809.83,828.64,823.6,0.7045,7.7897,5.0064,-0.0271,-0.0042,0.0366,right
D,512.42,228.65,788.89,811.92,798.6,-0.0328,9.5176,1.6173,0.0773,0.0315,-0.0105,left
P,456.05,194.62,505.11,818.55,788.92,-2.9981,4.8834,7.7363,0.0466,-0.0529,-0.0386,left
N,694.73,792.77,777.78,808.58,804.42,0.0979,9.9199,0.8114,0.0605,-0.0567,-0.0372,right
X,488.89,503.52,825.22,811.67,781.04,0.1618,9.6058,1.168,-0.0369,-0.0711,-0.0294,right
M,811.54,827.99,815.04,797.21,816.46,-0.2076,9.587,0.761,-0.0023,-0.073,-0.0452,left
C,480.31,487.91,508.18,478.9,503.21,0.2818,8.4404,4.1217,-0.0594,-0.0672,0.12,right
D,490.19,199.46,800.97,784.55,771.2,-0.0862,9.3082,1.5386,0.0175,-0.08,-0.0059,left
Q,479.89,226.17,809.74,816.71,789.64,3.0622,5.4969,6.9317,-0.0543,-0.0192,-0.0156,right
Q,503.85,202.02,767.09,797.97,789.78,-3.0723,5.2329,7.2381,0.0938,0.057,-0.0202,left
F,344.38,723.22,191.03,201.97,215.33,0.2041,9.1593,2.0356,0.0554,-0.0083,0.002,right
V,490.71,220.24,166.52,798.17,799.92,-0.4301,9.1934,2.3698,0.0407,-0.0335,-0.0809,left
B,741.87,186.49,207.56,205.06,216.97,-0.1295,9.6908,0.3402,-0.0657,-0.0166,-0.0581,left
N,675.24,798.85,798.14,788.75,792.09,-0.3902,9.5903,0.4534,-0.0765,-0.0443,-0.0504,left
F,385.96,755.0,219.33,182.83,197.97,0.5882,9.1073,2.3233,-0.0398,-0.1006,-0.0702,right
O,561.37,571.3,565.56,561.67,529.32,0.2388,8.9878,3.0723,0.0343,0.0006,0.0592,right
I,794.76,807.46,754.48,796.9,194.29,-0.3698,9.7627,0.2434,0.0477,-0.0072,0.0026,left
R,520.2,206.7,274.46,806.6,798.19,0.3677,9.0685,1.8667,0.041,0.0742,-0.0468,right
V,483.84,203.76,201.42,799.15,774.99,0.6316,8.9294,2.441,-0.025,-0.0153,0.0209,right
A,707.36,771.21,823.32,811.85,798.02,0.1087,9.6509,0.5369,-0.0355,0.066,-0.1214,left
S,714.82,778.06,786.06,786.78,787.73,-0.1577,9.4339,0.5105,-0.0458,0.0275,-0.0134,left
B,724.23,167.0,182.34,218.33,183.53,-0.0825,9.6259,0.3298,0.0001,0.0245,-0.0053,right
A,664.91,792.42,791.09,803.5,833.85,0.2132,9.424,0.5389,-0.0159,0.0115,-0.0114,right
F,371.8,789.66,207.98,201.08,214.84,0.5572,8.9923,1.6117,0.0003,0.0493,-0.1207,right
B,747.67,226.36,210.98,181.41,200.02,-0.1326,9.6553,0.1756,-0.0407,0.0466,0.0005,left
E,606.6,643.36,656.28,670.06,681.8,-0.382,9.4388,0.8426,-0.0101,-0.0061,0.0139,left
Z,484.42,208.75,809.32,804.14,816.46,0.461,9.1509,1.9339,2.4732,1.5037,0.9645,right
H,502.6,206.61,187.52,811.33,823.0,-5.0064,4.9816,5.1577,0.0272,-0.0333,0.0121,left
C,511.68,484.87,493.64,497.93,521.38,-0.1407,8.5387,4.037,0.0069,-0.0348,0.0162,left
A,675.78,802.26,793.15,806.67,817.36,-0.0392,9.7737,0.2028,0.0237,0.0808,0.0414,left
K,480.25,201.08,381.53,781.27,787.61,0.8737,9.038,3.1067,0.0717,-0.0158,0.0847,right
H,472.68,215.17,190.72,770.94,797.69,-5.1281,4.8433,5.7332,0.0556,-0.0403,0.0307,left
A,683.54,773.41,798.13,823.7,793.89,0.0336,9.597,0.3926,-0.0596,0.1026,0.0682,right
H,481.45,206.19,213.64,800.45,802.17,5.2473,4.793,5.3835,0.0684,-0.0283,0.0204,right
D,493.98,200.9,819.45,786.38,767.78,0.1957,9.5703,1.2856,-0.0184,-0.0174,0.0014,right
Q,528.28,190.48,803.99,793.24,783.26,-3.1042,5.433,6.9329,-0.0103,-0.0697,-0.0581,left
A,681.07,815.02,794.01,788.83,789.88,0.1291,9.8491,0.5731,0.1665,-0.0016,0.031,left
Q,488.34,194.14,788.37,779.55,796.25,-2.9158,5.4929,7.2054,0.0649,0.0157,-0.0408,left
J,795.47,800.28,775.88,823.05,196.18,0.0256,9.7881,0.3963,2.977,0.5101,1.9733,left
O,568.31,552.27,588.34,540.79,554.22,-0.1685,8.8707,3.0791,-0.0385,-0.0171,0.0033,right
K,476.62,198.11,366.78,787.95,799.47,0.8774,8.8684,3.0397,-0.0772,-0.045,0.1044,right
Q,516.43,192.79,772.35,800.05,798.85,3.0894,5.4079,6.8314,-0.0558,-0.0016,0.0009,right
I,788.45,790.62,773.04,808.09,180.11,-0.167,9.3873,0.3004,0.0272,0.0046,0.0016,left
R,501.25,188.83,259.27,818.8,826.38,-0.1727,9.379,1.8152,0.0266,0.0365,-0.0179,left
F,388.44,749.3,196.08,194.76,187.31,0.5162,9.1143,1.7163,-0.0002,-0.0111,-0.0825,right
W,510.43,183.75,209.7,217.97,770.04,-0.2012,9.2518,1.4188,0.0069,-0.0143,-0.0207,left
R,462.98,210.87,240.99,797.36,810.22,-0.4052,9.2803,1.8574,0.0518,-0.0669,0.0646,left
M,799.16,824.88,807.48,801.09,787.24,-0.1199,9.5531,0.604,-0.1087,-0.0196,-0.009,left
X,499.38,481.63,790.0,808.65,793.59,-0.458,9.6544,1.1404,-0.1362,0.0239,0.0277,left
D,515.91,171.05,793.91,779.21,800.61,-0.3886,9.2933,1.343,0.0407,-0.0093,0.0334,left
R,483.64,212.36,281.87,802.61,804.26,0.1034,9.2345,1.5954,-0.016,0.0191,-0.0306,right
C,505.59,478.86,507.4,507.81,491.92,0.4551,8.5443,3.7564,-0.0207,0.0045,-0.0271,right
C,493.37,500.97,511.63,489.3,524.73,0.2255,8.267,3.9504,0.0362,0.03,0.0152,right
N,675.36,785.29,788.62,809.71,780.69,-0.1047,9.4469,0.8774,0.0558,-0.003,-0.0328,left
C,502.66,491.11,516.84,510.03,500.5,-0.4176,8.4502,3.8799,-0.0389,-0.0489,-0.0318,left
L,189.67,169.84,805.08,800.1,772.77,0.5352,8.0086,5.0681,-0.0178,-0.0088,-0.1008,right
P,521.99,204.44,510.38,821.71,793.19,-3.0194,4.7101,7.5695,-0.0913,0.0207,0.117,left
M,798.34,797.01,796.97,798.65,806.45,-0.2228,9.8371,0.471,-0.0128,-0.0965,-0.002,left
B,719.73,186.02,189.15,215.84,195.69,0.1069,9.5348,0.2626,-0.0023,-0.0086,-0.0112,left
D,533.39,208.56,778.79,785.21,779.63,-0.0046,9.4163,1.7514,-0.0185,-0.006,-0.016,right
A,680.83,815.3,789.54,796.22,776.6,0.1354,9.6735,0.5089,-0.014,0.0489,0.0031,right
Y,206.54,809.42,813.81,805.94,196.33,0.3468,8.6897,3.7819,-0.0281,-0.0232,0.0024,right
R,494.02,199.22,243.74,803.96,819.95,-0.2688,9.4627,1.8011,0.0387,0.0248,0.0415,left
V,508.51,221.05,191.21,794.01,769.41,-0.5543,9.048,2.5471,-0.0486,0.043,0.0472,left
S,739.36,803.67,781.66,818.72,803.33,0.1987,9.4875,0.2082,0.0722,0.0628,0.0768,left
Y,185.96,797.01,814.56,796.4,194.38,0.393,8.6696,3.9772,0.0128,-0.026,-0.0566,right
V,494.03,200.87,197.74,795.77,778.39,0.5153,8.9436,2.5355,0.0103,0.0584,0.0324,right
L,216.08,193.42,785.15,800.48,809.35,0.2915,8.0516,5.0947,-0.09,0.076,-0.0788,right
W,476.76,193.9,189.0,170.76,797.87,0.4042,9.4899,1.6237,0.0772,-0.0487,-0.0163,right
V,508.48,214.54,188.04,796.7,795.29,0.521,8.7882,2.4736,0.0105,-0.046,-0.0322,right
B,751.43,217.38,194.5,189.38,190.91,-0.1472,9.688,0.2427,0.0008,-0.0246,-0.0369,right
Q,499.52,202.96,795.31,798.92,778.14,-2.9645,5.402,6.8993,-0.0584,0.0533,0.0555,left
F,377.81,752.97,193.0,202.71,207.09,-0.4033,9.4085,2.0201,-0.0339,-0.003,-0.0258,left
A,668.95,810.32,783.15,783.9,774.65,-0.263,9.7569,0.374,0.0737,-0.0833,0.081,left
T,603.34,790.66,795.72,801.05,820.8,-0.2596,9.3981,0.1075,-0.0376,0.0949,-0.0141,left
M,834.69,789.22,802.91,785.37,822.74,-0.2588,9.6004,1.0418,-0.015,-0.009,0.043,left
I,830.5,799.27,795.56,772.5,197.84,0.0071,9.889,0.152,-0.0823,-0.0418,0.0324,right
A,693.1,796.39,805.65,803.72,811.73,-0.067,9.7852,0.2728,-0.131,-0.0303,-0.0458,right
E,635.87,676.1,660.73,694.55,700.07,-0.0216,9.1275,0.7475,-0.0135,0.04,0.0173,left
M,783.12,813.69,796.23,803.54,775.37,-0.171,9.7288,0.6199,0.047,0.042,0.1265,left
M,797.86,786.96,831.36,807.72,799.35,0.185,9.652,0.6011,-0.0492,0.042,0.0528,right
V,485.49,194.89,203.09,800.26,794.24,-0.5389,9.0071,2.6672,-0.0311,0.0092,-0.0461,left
M,816.2,796.58,795.26,791.82,789.05,-0.0269,9.5601,0.6682,-0.0481,0.0648,0.0088,right
J,824.11,803.86,821.17,797.79,201.66,-0.1949,9.6389,0.3131,3.0331,0.5899,1.9865,left
L,194.58,192.33,819.66,778.01,801.8,-0.6371,7.8154,5.0954,0.0802,-0.0789,0.0175,left
B,720.34,199.19,195.59,184.26,218.01,0.2023,9.7609,0.2039,-0.0875,0.0037,0.0368,right
U,517.65,212.58,212.03,782.39,805.81,-0.2206,9.5864,1.0155,0.0247,0.0233,-0.0329,left
I,796.15,796.4,791.13,808.92,205.88,0.1827,10.0304,0.4802,-0.0985,-0.0698,-0.003,right
N,695.29,811.43,814.09,789.53,800.38,-0.6754,9.5224,0.6076,-0.0334,-0.0258,0.0644,left
U,490.75,222.97,198.65,799.76,816.57,0.0415,9.7959,1.1433,0.0343,-0.0355,0.0335,right
U,493.65,198.64,174.83,797.58,804.74,0.2521,9.4589,0.6654,-0.0956,-0.0352,0.069,right
X,486.79,506.19,805.5,812.53,795.16,-0.6202,9.3831,1.1481,-0.0029,-0.0466,-0.0028,left
G,475.43,233.23,804.52,795.44,797.74,-5.161,5.2704,5.9874,-0.0218,0.0879,0.0516,left
L,232.1,203.24,823.63,818.4,837.52,0.488,8.1203,4.9894,-0.0812,0.0945,-0.0539,right
T,618.75,813.01,802.38,791.26,782.68,-0.0094,9.6948,0.4062,0.0453,0.0835,0.0298,right
F,356.69,751.41,178.21,182.45,197.2,0.3525,9.3813,1.9271,-0.0698,-0.0161,-0.004,right
P,489.59,197.38,486.37,810.3,810.48,2.8304,5.0063,7.3467,0.0383,0.0703,0.0637,right
P,503.74,203.77,511.05,767.4,807.59,2.9142,4.6898,7.4437,0.0706,-0.0416,-0.0059,right
S,740.03,819.16,801.3,802.84,805.33,-0.1668,9.7708,0.3609,-0.0327,-0.0686,-0.0069,left
J,833.14,767.85,839.83,810.94,224.84,-0.0069,9.6402,0.2171,3.0133,0.5195,1.9538,left
Q,486.88,184.48,802.51,798.53,789.33,2.7935,5.3578,6.8586,-0.017,-0.0333,0.0179,right
E,603.01,689.71,668.38,685.79,667.08,-0.1007,9.7475,0.9606,-0.0663,-0.037,0.008,right
N,669.51,791.03,816.48,798.75,807.56,-0.3419,9.362,0.6678,0.0438,0.0561,0.0599,left
T,657.07,809.89,775.42,802.83,790.21,-0.5051,9.607,0.3521,-0.0072,-0.0206,-0.003,left
C,508.29,481.24,493.47,497.65,487.68,-0.264,8.6023,3.898,-0.0159,-0.1138,-0.0375,left
F,399.85,738.03,192.68,204.91,193.79,0.3214,8.9323,1.6412,-0.0527,0.0612,-0.0469,right
C,483.62,484.37,532.86,503.96,512.41,0.0851,8.4128,3.9405,0.0745,-0.0654,0.0037,left
V,517.68,173.8,194.99,813.04,804.41,0.7511,8.9908,2.751,-0.0284,-0.0874,0.0215,right
W,499.74,171.35,192.49,172.17,795.09,-0.3348,9.109,1.3635,-0.0599,0.0294,-0.0317,left
A,696.18,808.2,795.22,781.7,789.12,-0.1655,9.7034,0.422,0.0368,-0.0475,-0.0866,left
N,692.68,810.36,815.95,757.87,808.16,-0.4195,9.1983,0.919,-0.011,0.0328,0.0432,left
E,607.46,677.78,666.44,660.8,685.78,0.0187,9.7468,0.8783,0.0212,0.0376,-0.0457,right
R,508.53,213.06,272.86,768.93,806.4,0.3346,9.3528,2.0333,0.0419,0.0937,0.0713,right
C,516.81,496.86,511.61,491.15,497.87,0.0617,8.5655,4.0189,-0.0628,0.0187,0.0161,right
U,524.4,201.77,187.78,805.27,824.8,-0.1708,9.5506,0.5987,-0.0026,0.049,0.0978,left
S,732.9,817.33,788.37,781.13,804.5,-0.1391,9.7117,0.4634,-0.0159,0.0471,0.0237,left
D,498.84,172.1,777.4,794.53,777.06,-0.2506,9.8147,1.5991,-0.0445,0.0084,0.0416,left
K,512.62,212.98,394.2,810.44,817.74,1.0595,9.2756,3.0393,-0.0233,0.0909,-0.0363,right
A,683.73,821.72,790.26,807.22,823.42,0.2092,9.5937,0.6441,-0.0413,-0.087,-0.0058,right
P,501.38,211.67,500.21,800.38,813.8,2.9228,5.1192,7.3166,-0.0061,-0.0533,0.0361,right
X,512.75,499.71,770.62,806.78,818.39,0.6962,9.1943,1.125,-0.0062,0.0244,0.0298,right
W,519.91,197.67,208.57,209.98,799.32,-0.6846,9.2758,1.6205,-0.0287,0.0527,0.0064,left
Z,506.65,232.54,793.54,799.71,805.49,-0.5875,9.1423,1.8115,2.4377,1.4162,1.058,left
B,748.18,207.31,185.53,196.52,174.75,0.2655,9.7383,0.0235,-0.0687,-0.042,0.0548,left
G,511.86,222.15,824.11,800.66,830.0,-5.1547,5.1012,5.8631,-0.0102,-0.0303,-0.011,left
J,790.93,780.36,810.21,797.31,203.82,0.1133,9.6944,0.4551,3.0289,0.5212,1.9423,right
P,501.74,218.72,483.83,805.53,761.08,2.902,5.1353,7.8224,-0.0467,0.0145,0.0609,right
R,503.14,187.53,263.52,795.52,799.69,0.2619,9.6086,1.8789,-0.0662,0.0355,-0.0033,right
U,509.56,207.83,228.5,801.58,803.32,0.1658,9.7402,1.1887,-0.0157,-0.0213,-0.0069,right
S,752.23,801.7,825.93,793.6,796.02,0.132,9.7697,0.3192,-0.0151,-0.0194,-0.0341,right
M,782.97,807.65,764.81,797.3,795.18,-0.198,9.6828,0.7689,-0.0143,0.004,-0.014,left
P,496.54,218.42,502.44,786.48,791.96,3.0809,5.1373,7.4398,-0.0275,-0.0183,-0.0554,right
Q,522.35,194.72,814.5,793.9,821.29,-3.157,5.4761,6.8775,-0.0709,0.043,0.0663,left
N,673.79,812.77,778.36,799.61,809.89,0.42,9.4104,0.6037,-0.0444,-0.1234,0.044,right
U,495.62,209.88,208.64,811.49,815.38,0.1739,9.4203,1.2046,-0.0471,-0.0153,-0.02,right
G,475.82,224.63,810.42,808.2,816.38,-4.9699,4.955,5.8345,-0.0274,-0.0286,-0.0244,left
I,801.88,766.21,792.86,795.14,198.31,-0.0145,9.5394,0.4373,-0.0483,0.0482,0.0244,right
Q,503.22,173.4,795.8,799.62,832.57,3.055,5.5503,6.8162,0.0407,0.0297,0.0018,right
M,792.06,771.74,785.83,791.64,770.28,-0.1625,9.6765,0.6156,-0.0113,0.0603,0.015,left
X,525.93,499.47,803.46,805.78,809.66,0.434,9.3581,1.1499,0.0473,-0.0661,0.0794,right
K,516.59,202.38,401.74,807.16,816.33,0.878,9.048,2.8981,-0.0118,0.1482,-0.0464,right
X,515.17,482.44,791.35,804.87,775.5,-0.6459,9.3535,1.2927,-0.0277,-0.0433,-0.0394,left
E,650.84,695.96,666.14,682.06,689.35,-0.0732,9.815,0.7258,0.0496,-0.0315,0.0254,left
X,489.11,507.47,815.21,801.72,815.18,-0.3793,9.2662,1.2649,0.0442,0.0466,-0.012,left
M,789.37,789.54,813.21,800.71,817.27,0.4393,9.3789,0.4704,-0.0713,-0.0147,0.0285,right
R,496.26,200.25,272.86,785.89,793.35,0.3628,9.4527,1.8751,-0.0163,-0.0711,0.0899,right
S,752.84,796.34,805.09,802.94,792.52,-0.2108,9.5388,0.377,-0.0126,-0.0043,0.0188,left
F,381.89,743.81,192.71,206.5,189.35,0.1988,9.1035,1.8965,0.061,0.036,-0.0025,right
X,488.08,511.61,788.17,791.43,786.17,-0.3188,9.4726,1.2387,-0.0194,0.0461,0.0018,left
K,518.79,192.37,353.59,823.75,782.2,-1.1194,9.0442,2.8727,0.047,0.0254,-0.0274,left
M,827.7,776.64,831.16,795.63,825.88,-0.3049,9.8075,0.43,-0.0641,0.0341,0.0541,left
R,508.69,209.77,263.24,801.46,810.71,-0.2419,9.3657,1.7932,0.0827,-0.052,0.0152,left
O,578.15,563.66,535.37,603.15,579.29,0.0319,9.2171,3.1496,-0.0304,0.0065,-0.0491,left
G,511.16,242.55,772.33,836.4,785.41,-5.2032,4.8558,6.1101,0.0108,-0.031,-0.029,left
I,794.78,777.23,799.98,788.77,197.45,-0.2674,9.8375,0.1232,-0.0675,-0.012,-0.101,right
P,482.68,183.69,517.76,789.76,798.16,2.9048,5.2423,7.7652,0.0502,0.0182,-0.0373,right
G,510.47,225.62,775.77,784.49,818.04,-4.9866,4.9721,6.2002,-0.0141,0.04,-0.0618,left
S,743.62,802.93,786.54,792.47,761.66,-0.2901,9.954,0.2439,-0.0292,0.0029,0.0303,left
A,688.02,825.11,810.22,789.97,788.03,0.0987,9.87,0.7855,0.1229,-0.0449,-0.0283,right
D,503.72,211.75,773.56,787.38,822.3,0.0072,9.36,1.3924,0.0416,0.06,0.0421,right
D,490.43,209.86,811.45,809.95,772.55,0.2769,9.4369,1.341,-0.0919,0.0492,0.0133,right
Q,496.18,190.79,805.61,776.44,819.56,-3.0984,5.8676,6.9217,0.0397,-0.0199,0.0307,left
Q,502.11,222.68,800.11,780.47,774.25,2.8239,5.5307,6.8392,0.0147,0.0194,0.1267,right
E,649.06,684.85,644.39,694.77,649.78,-0.1946,9.5862,0.7399,-0.0097,-0.0282,0.0072,right
J,801.78,794.42,786.56,787.25,230.21,0.134,9.6119,0.4939,3.002,0.4377,1.972,right
K,509.21,178.41,375.53,824.96,804.97,-0.6961,8.8735,3.0038,-0.0452,0.0184,-0.0344,left
T,574.88,789.68,799.42,801.86,800.62,-0.2721,9.5114,0.6694,0.0401,0.0155,-0.0092,left
T,624.27,794.85,804.41,798.66,819.32,-0.0099,9.2296,0.3371,-0.0918,-0.015,0.0525,left
L,212.35,183.53,820.71,831.37,821.69,0.4742,8.0629,4.7468,-0.0141,0.1153,-0.097,right
D,533.79,210.61,801.28,810.29,799.02,-0.0239,9.5244,1.6691,0.0551,0.0127,-0.0468,left
X,508.39,496.55,802.22,795.42,810.59,-0.414,9.2066,1.6254,0.0171,-0.0862,0.0611,left
I,803.41,806.93,799.51,790.9,198.93,0.0802,9.6765,0.56,0.0346,0.0712,0.0482,right
W,501.21,197.81,222.75,205.84,806.48,-0.1334,9.5114,1.4761,0.0327,-0.1155,0.0661,left
W,488.79,214.05,196.55,240.9,788.84,-0.3564,9.6904,1.269,0.0222,-0.0475,0.0767,left
E,611.86,668.24,663.74,656.6,665.5,-0.0152,9.751,0.7005,-0.0606,0.0803,-0.0572,left
F,381.12,743.84,222.05,202.96,209.71,-0.3349,9.5347,1.8071,0.0258,-0.0382,-0.0928,left
V,493.53,211.39,190.88,832.68,796.97,0.7079,8.9295,2.6883,0.0915,-0.098,-0.0743,right
H,477.1,198.5,202.89,807.47,766.94,-4.7893,5.3047,5.3978,0.0617,-0.0546,-0.0412,left
T,605.49,804.74,805.92,803.84,789.18,-0.0383,9.4281,0.4719,0.0503,0.0447,0.0378,left
R,509.2,187.64,254.95,792.69,826.37,-0.177,9.4503,1.6028,0.0133,-0.0897,-0.0444,left
K,495.91,211.67,380.82,797.47,811.83,1.0311,8.9586,2.9726,-0.0182,0.0498,-0.001,right
G,502.0,185.67,808.71,794.91,773.02,-5.1225,5.157,6.0032,-0.009,-0.0033,-0.0556,left
O,546.28,547.84,566.03,549.31,578.8,0.0813,8.9865,3.215,-0.007,-0.0214,-0.0599,left
Z,486.4,197.88,831.24,795.86,790.74,-0.636,8.6275,1.7883,2.5771,1.5651,0.9932,left
S,745.98,799.3,803.09,799.39,798.21,-0.2413,9.9493,0.0382,-0.0803,-0.0917,-0.0046,left
Z,505.27,235.02,788.05,805.66,825.55,0.5867,8.837,1.6465,2.4567,1.4835,1.0429,right
V,511.34,199.86,175.8,825.95,793.02,-0.4494,9.0253,2.574,-0.044,0.0214,0.0238,left
E,627.35,672.15,668.32,663.31,705.94,0.0187,9.5054,0.8861,0.0602,0.0159,0.0348,right
U,480.21,198.7,179.24,785.7,812.11,-0.1135,9.474,1.3675,-0.0085,0.0939,-0.0353,left
E,629.91,676.59,666.72,669.49,669.51,0.0121,9.5295,0.8443,-0.0741,-0.0424,-0.0428,left
Y,215.36,797.14,774.41,823.11,205.26,0.1354,8.6586,3.7343,0.0083,-0.0829,0.056,right
P,529.25,185.71,498.99,782.38,766.8,2.972,5.2531,7.6293,-0.0659,-0.0787,0.0525,right
I,768.0,778.44,813.44,810.41,209.93,-0.094,9.5224,0.4284,-0.0505,0.0174,0.0293,left
X,493.25,498.56,818.52,805.46,803.44,-0.5127,9.3494,0.8299,0.0386,-0.0438,0.0041,left
P,515.41,209.74,516.06,820.75,781.25,-3.102,4.9232,7.4646,-0.0383,-0.0167,0.0146,left
S,735.39,808.53,821.46,793.59,804.74,-0.3082,9.7322,0.3704,0.0244,0.0072,0.0871,left
Q,502.74,196.31,811.42,797.05,813.22,-3.1904,5.4552,6.9435,0.0844,-0.0272,0.0456,left
Z,501.43,223.18,796.27,803.39,807.25,-0.4566,9.0809,2.0706,2.468,1.4769,0.9435,left
K,501.24,194.45,423.54,815.76,812.55,1.0846,8.8258,2.8907,-0.0931,0.0479,0.0458,right
V,497.57,210.27,190.87,824.1,815.51,0.5825,9.0267,2.6355,0.0172,-0.0875,-0.0496,right
B,711.59,213.35,175.91,214.49,180.49,0.1442,9.7503,0.32,-0.0038,0.1238,-0.0219,right
V,493.52,185.48,204.02,786.73,813.24,0.2922,9.0655,2.6905,-0.0807,-0.0021,0.0517,right
H,496.42,194.84,214.43,818.42,810.73,5.1134,5.3767,5.1951,0.1038,0.0124,-0.0608,right
F,402.61,769.34,242.75,196.12,192.94,-0.476,9.2116,1.969,-0.0568,-0.1402,0.0589,left
R,493.14,193.8,244.26,798.1,793.6,-0.3425,9.2844,2.2454,0.0486,-0.0196,0.031,left
G,488.4,230.12,785.24,788.93,833.42,-4.9947,4.8741,6.0563,-0.0228,-0.0405,0.0164,left
X,503.54,502.94,785.9,800.14,829.17,-0.4284,9.3163,1.3875,-0.0601,0.1077,-0.0358,left
B,736.45,180.47,210.12,218.54,178.99,-0.1966,9.9358,0.3815,0.1193,0.024,0.0075,right
A,658.97,795.88,800.12,779.97,799.71,0.3087,9.477,0.3295,0.0224,-0.0771,0.0214,right
J,791.3,797.04,810.61,803.13,208.24,-0.0793,9.9556,0.1706,2.9887,0.5877,1.9763,left
D,487.92,180.82,796.07,778.46,811.62,-0.2018,9.3703,1.5728,0.0765,0.0173,-0.0292,left
V,480.12,177.7,217.43,792.45,802.81,-0.594,9.0697,2.567,-0.04,0.0682,-0.1087,left
G,485.46,180.24,800.43,769.64,792.67,4.76,5.009,5.8685,0.0474,-0.0354,-0.0148,right
O,576.22,566.29,530.78,533.78,568.59,-0.007,8.7649,2.7944,-0.1056,0.001,-0.1006,left
K,521.8,186.59,359.32,792.86,785.87,-1.0166,9.0279,3.0831,-0.0966,-0.022,0.0116,left
F,384.18,724.28,227.25,220.39,215.43,0.4991,9.168,2.0114,-0.0713,0.0084,0.0324,right
L,190.59,200.25,801.47,777.62,824.74,-0.3329,7.8746,5.1911,0.0144,-0.0295,0.0282,left
V,525.44,208.37,209.43,793.77,801.45,0.3766,8.9196,2.5464,0.0006,0.1131,-0.0252,right
E,619.22,681.79,673.27,666.98,691.46,0.0841,9.6624,0.7263,-0.0032,0.0395,0.0443,left
Z,490.08,192.96,811.31,803.18,774.76,-0.2542,9.0408,2.0528,2.4706,1.4918,0.9596,left
U,518.61,180.72,205.81,799.06,799.2,-0.3542,9.5661,0.9407,-0.009,-0.0007,0.051,left
A,686.28,776.99,826.22,804.22,799.26,-0.2423,9.8769,0.4301,-0.0405,-0.0948,-0.0374,left
E,627.81,650.28,693.97,682.75,658.25,-0.0808,9.5651,0.9685,0.0255,-0.0061,-0.0313,right
B,739.5,192.16,180.08,213.37,194.77,0.0686,10.1705,0.0363,0.0075,0.0482,-0.0034,left
Q,492.1,199.65,805.91,799.6,791.27,3.1089,5.6331,7.0725,0.0085,-0.043,-0.0376,right
Z,531.67,206.06,804.79,794.64,828.92,0.6122,8.5689,1.8484,2.5643,1.4415,0.9798,right
Q,472.03,197.02,818.63,839.3,800.08,-2.7476,5.4355,6.9849,0.0503,-0.0118,-0.034,left
M,807.6,798.29,802.38,816.42,814.53,0.3219,9.5136,0.8924,-0.0188,0.0501,0.0207,right
S,740.78,762.06,815.52,822.23,818.7,0.0181,9.3863,0.3251,0.0359,0.0154,0.0424,left
C,519.09,506.44,528.85,514.1,518.98,0.4477,8.4703,4.1205,0.0128,0.0132,-0.028,right
U,496.25,190.81,194.06,812.66,804.79,-0.1755,9.6799,1.2641,0.0033,-0.046,-0.1107,left
U,508.66,178.17,193.62,798.4,766.26,0.0852,9.4966,0.8526,-0.0701,-0.0486,0.0279,right
F,405.83,749.43,200.38,218.46,211.57,0.618,9.0985,2.0911,-0.0805,-0.012,-0.0318,right
A,678.35,763.21,796.41,790.9,799.14,-0.0204,9.4856,0.3647,-0.1152,-0.0802,0.0208,right
K,496.02,201.34,372.87,820.2,795.92,1.1286,9.1356,3.0295,-0.0032,-0.0632,0.0599,right
A,652.58,811.79,812.3,788.8,796.38,0.2094,9.587,0.5444,0.0605,-0.0042,-0.0332,right
P,508.1,186.26,489.2,773.73,807.91,-2.877,5.019,7.5353,0.0436,0.0857,-0.0185,left
J,806.54,806.46,793.16,813.05,189.1,0.0432,9.517,0.1681,3.1098,0.4917,1.9794,right
K,492.9,201.56,392.95,822.71,796.02,-1.3549,9.1277,2.9484,0.0109,-0.0185,-0.0074,left
R,506.02,202.35,252.03,843.65,786.31,0.0991,9.5648,1.6642,-0.0003,-0.0185,0.1236,right
V,520.82,222.56,200.48,784.74,828.73,-0.6473,9.0288,2.3593,-0.0224,0.0736,-0.0914,left
S,745.46,825.23,821.27,797.17,796.32,0.1193,9.468,0.4097,-0.0841,0.0164,-0.0074,right
T,618.98,780.05,804.48,806.61,801.26,-0.1944,9.735,0.6156,-0.124,0.0549,0.009,left
Z,482.76,185.13,779.04,771.12,812.61,-0.7006,9.0905,2.1071,2.5305,1.5774,1.0238,left
A,658.51,808.8,829.16,827.88,791.4,-0.1701,9.8033,0.6592,-0.0209,-0.0071,0.1103,left
J,828.13,818.02,804.27,786.59,197.66,0.0681,9.7172,0.4747,2.9546,0.4862,2.0415,left
R,493.99,195.18,249.58,802.99,827.18,-0.0155,8.9642,1.4264,-0.0323,-0.0076,-0.0301,left
P,522.27,200.14,479.76,798.23,812.44,2.9181,5.0748,7.4993,0.0491,-0.0063,0.0061,right
H,504.62,201.41,225.84,793.5,756.29,-4.9595,5.0337,5.3529,0.0503,-0.0095,0.0124,left
J,792.65,794.36,808.05,812.74,167.62,0.2685,9.4732,0.467,2.9967,0.5651,1.9876,right
Q,519.85,221.08,770.86,795.05,794.82,-2.9271,5.5877,7.1019,0.033,-0.0848,-0.0156,left
L,164.04,193.02,794.24,783.94,783.84,-0.4693,7.9904,4.787,-0.0525,-0.0459,0.0383,left
G,499.17,196.13,806.21,795.75,800.56,-5.0327,4.9327,6.2054,0.0108,0.0087,0.0462,left
Q,521.12,210.8,793.99,805.42,798.23,3.0542,5.7695,6.9282,-0.0876,0.0211,0.0165,right
N,716.07,827.35,782.68,778.46,775.91,0.1796,9.5181,0.5561,0.0748,-0.0344,-0.1021,right
R,506.37,189.83,247.93,804.38,805.81,0.3518,9.3871,1.7981,0.0815,0.0342,-0.0304,right
F,402.23,723.32,201.53,171.16,215.53,-0.4329,9.414,2.2061,-0.0247,0.0454,0.0085,left
O,565.06,573.37,570.62,546.07,562.73,-0.1135,8.9694,2.838,-0.0347,0.0057,-0.0199,right
C,505.03,507.45,485.02,503.24,462.2,0.2132,8.5339,4.1243,-0.0024,0.0252,0.0417,right
Z,485.35,197.95,782.26,802.32,785.97,-0.529,9.1192,1.9868,2.4691,1.6129,0.9584,left
K,483.23,189.52,355.65,785.71,803.35,-0.9849,8.9883,2.8917,-0.0299,-0.0507,-0.019,left
I,823.0,797.3,782.41,763.87,195.33,-0.2264,9.4946,0.166,-0.0404,0.0889,-0.0449,left
S,736.03,782.75,823.0,832.81,786.04,-0.228,9.4046,0.2588,-0.0407,0.0164,0.0145,left
Z,485.76,169.71,773.01,791.57,816.72,0.74,9.1051,1.9995,2.4811,1.4793,0.9442,right
P,508.1,184.45,492.44,809.06,787.1,-3.2998,4.8783,7.1879,-0.0991,0.0203,-0.0361,left
F,387.22,752.08,227.89,183.64,183.26,-0.2893,9.2018,1.8277,0.0507,-0.0412,-0.0081,left
H,496.65,206.22,223.47,776.86,766.3,-4.9914,4.8516,5.3235,-0.0339,0.0072,-0.0849,left
A,652.64,806.14,788.94,792.74,800.99,0.2502,9.6703,0.6615,0.0002,-0.0649,-0.0223,left
C,505.38,504.22,504.35,524.48,478.62,-0.3816,8.5263,4.1428,-0.0734,0.0173,-0.0104,left
O,554.33,564.49,565.03,534.64,556.71,-0.1418,8.9064,2.8207,-0.0209,0.0018,-0.0252,right
A,700.99,786.79,816.11,771.89,801.75,-0.0071,9.7338,0.4001,0.014,0.0353,0.003,right
T,626.16,795.32,797.08,796.19,809.56,-0.3586,9.7213,0.2205,-0.0479,-0.0365,-0.0384,left
N,689.84,834.98,789.78,808.61,820.26,-0.3201,9.5886,0.8503,-0.038,-0.0153,0.0983,left
O,543.68,576.75,541.28,546.23,541.01,0.1837,9.0347,3.1256,-0.0313,0.0212,-0.0092,right
V,501.03,208.94,208.1,825.21,802.92,-0.7097,8.839,2.4099,-0.0089,0.0037,-0.0104,left
B,736.53,197.13,199.85,186.68,234.37,-0.1394,10.0144,0.4469,0.2157,0.0235,0.0346,left
X,509.42,500.15,804.38,786.96,794.42,-0.8126,9.5286,0.972,-0.0055,0.0409,-0.0415,left
K,482.01,214.65,392.17,809.73,796.82,-0.9837,8.8137,3.0515,0.0424,0.0029,-0.0648,left
C,525.72,524.94,532.36,510.66,478.01,-0.2018,8.3527,4.0036,-0.0419,0.0208,0.0336,left
M,829.72,806.49,803.96,797.61,785.49,-0.0586,9.5131,0.5861,0.1062,0.01,0.1247,left
V,504.39,206.43,201.41,800.09,811.52,0.5511,8.8735,2.3203,-0.0493,0.0106,0.043,right
S,737.61,808.11,803.23,815.09,818.31,0.3142,9.5788,0.482,-0.0132,-0.0371,0.0438,right
L,224.67,214.14,811.88,811.07,796.81,0.3737,8.0758,4.9058,0.0438,-0.0583,-0.0035,right
V,480.86,198.77,205.74,790.98,809.27,-0.3402,8.6407,2.6366,-0.0585,0.0381,0.0738,left
G,491.14,180.75,796.83,794.81,803.01,5.0258,4.776,6.0261,-0.0075,-0.0316,-0.0686,right
W,511.19,204.98,225.6,192.92,795.54,0.0002,9.1957,1.5532,0.1071,-0.1149,-0.0082,right
B,737.05,170.36,207.85,198.78,186.76,0.14,9.7293,0.3525,-0.0041,0.0375,0.034,left
Q,491.41,206.06,785.35,795.99,807.05,3.1841,5.25,7.2601,0.0239,-0.0251,0.0259,right
F,393.01,721.59,236.56,192.76,196.25,-0.3624,8.972,2.018,-0.0668,-0.013,0.0218,left
Z,476.19,196.54,793.08,791.93,805.98,-0.5929,8.7959,1.9112,2.6013,1.5607,0.9628,left
L,213.54,204.74,813.38,806.76,818.74,0.3439,8.2907,5.1531,-0.0298,0.0398,0.0033,right
U,498.3,211.7,214.27,794.28,799.97,-0.1101,9.7325,1.0708,0.0271,0.0608,-0.0371,left
R,502.99,204.38,221.45,806.32,816.67,-0.4225,9.2005,1.8123,0.0872,-0.0026,0.0508,left
H,492.86,184.78,183.69,819.35,807.97,4.9287,4.9727,5.6542,-0.0048,0.0016,0.007,right
V,479.67,212.32,196.55,793.79,791.21,0.6199,9.0258,2.5528,-0.0075,-0.0029,0.0087,right
U,477.9,189.08,194.18,810.9,786.0,0.104,9.6211,1.2098,-0.0426,-0.0734,-0.0538,right
N,694.85,800.63,795.55,805.61,812.47,0.1816,9.2354,0.7217,0.0537,-0.0335,-0.1049,right
O,552.49,594.92,551.52,547.57,576.25,-0.0493,8.7554,3.0019,-0.0609,-0.0495,0.0324,left
N,677.89,766.84,784.8,796.59,773.96,0.1906,9.6266,0.8726,-0.0674,-0.0302,0.0303,right
P,493.12,191.88,497.67,796.47,794.37,-3.1859,4.9388,7.3814,0.0584,0.031,-0.0162,left
U,496.33,183.55,206.68,797.62,822.62,0.1395,9.7589,1.1333,0.0287,-0.0044,0.059,right
X,485.88,489.11,820.12,797.71,803.72,-0.4044,9.7596,1.4825,-0.0139,-0.0435,-0.1128,left
X,485.58,507.38,781.09,831.23,804.8,0.364,9.3218,1.0688,-0.0682,-0.023,0.0986,right
U,508.96,183.98,205.71,807.57,803.78,0.2475,9.6862,0.8589,0.0048,0.0169,0.0537,right
C,516.49,494.85,504.99,513.9,479.79,-0.3824,8.3532,4.0943,-0.0134,-0.0525,0.0321,left
Z,474.84,173.62,797.65,782.54,781.6,-0.4991,9.2164,1.7732,2.4627,1.4466,1.0352,left
N,681.29,801.26,809.09,794.41,785.65,0.3968,9.4091,0.8036,-0.1155,-0.0827,0.0575,right
I,813.41,756.61,793.78,788.84,214.94,-0.0829,9.7663,0.4468,-0.0333,0.016,0.0391,left
F,380.26,726.38,189.02,204.55,221.54,0.3448,9.2464,1.9861,-0.0034,0.0298,-0.0272,right
Y,180.73,804.46,800.67,813.11,192.1,0.1821,8.7073,4.1433,-0.052,0.0117,0.0939,right
F,376.9,746.05,187.88,204.34,183.19,-0.387,9.1203,1.8143,0.0189,-0.0403,-0.0109,left
H,511.28,228.84,199.86,806.67,827.97,-5.0174,5.0873,5.4442,-0.004,0.0654,0.0414,left
K,494.71,196.86,383.3,816.66,783.25,-0.783,8.8976,2.8808,0.0222,-0.0047,-0.003,left
J,814.82,804.56,827.65,830.65,236.46,0.2551,9.5158,0.4095,3.0212,0.4852,1.9098,right
P,508.46,204.84,506.53,798.02,803.92,2.8175,4.8174,7.6907,-0.0007,-0.0681,-0.0287,right
Z,501.85,190.27,805.04,787.31,790.35,0.7869,9.0366,2.1792,2.4686,1.5509,0.9834,right
D,514.17,176.6,818.43,796.53,801.88,0.2373,9.691,1.5703,0.0566,0.0071,-0.0339,right
J,783.69,791.73,806.59,810.33,179.44,-0.1918,9.7028,0.4614,3.0682,0.4887,1.9604,left
N,676.62,786.14,802.95,783.26,800.2,-0.2884,9.3708,0.8641,-0.081,-0.0332,0.0555,left
H,500.06,182.27,221.83,802.57,762.35,4.9236,4.9841,5.6006,0.0459,-0.0838,-0.0185,right
O,572.26,565.56,553.4,576.57,566.92,0.0048,8.9931,2.8075,0.0555,0.0219,-0.0328,left
P,492.53,196.76,496.19,802.39,781.83,3.0381,4.995,7.4304,0.0629,-0.004,-0.007,right
L,196.43,210.86,816.14,815.99,799.37,-0.638,7.8197,4.967,0.0444,0.0621,-0.0125,left
U,500.85,206.81,211.22,818.17,813.48,0.2025,9.4022,1.0671,0.0502,0.0499,0.0012,right
M,837.68,817.85,811.6,792.69,793.83,0.6417,9.3677,0.8141,0.0425,0.0365,-0.088,right
T,625.99,787.32,797.22,793.82,800.42,0.2879,9.7025,0.46,0.0189,-0.0298,-0.0949,right
F,384.9,738.74,192.76,206.35,165.22,0.4731,9.1237,1.8594,0.0283,0.0289,0.0602,right
W,514.39,198.96,204.15,222.95,775.12,-0.4115,9.5288,1.6402,-0.1071,0.044,-0.0338,left
Y,196.92,819.29,814.91,797.06,191.42,-0.308,8.8892,3.9975,0.0304,-0.0412,0.0061,left
V,539.48,190.07,184.34,814.91,801.17,0.6275,9.1939,2.772,0.058,-0.0109,0.0525,right
Q,517.38,198.25,769.07,823.42,793.25,3.067,5.291,6.8155,-0.0365,0.0054,0.063,right
G,491.3,185.02,786.28,822.35,830.46,-4.9066,5.1702,6.1825,0.0054,0.0168,-0.1135,left
O,553.72,572.3,568.16,556.54,562.7,-0.1213,9.3513,3.0665,0.061,-0.0812,0.0463,right
N,683.86,780.83,819.98,787.56,778.76,-0.4744,9.5011,0.8931,0.0335,-0.0275,0.036,left
N,683.56,780.51,797.59,799.44,818.96,0.5301,9.4127,0.5936,-0.0806,-0.0443,0.003,right
X,498.59,501.59,793.34,798.1,793.91,-0.5011,9.4029,1.3548,0.0587,-0.0373,-0.0214,left
G,508.87,184.35,768.84,802.03,780.91,5.0285,4.7768,6.1172,0.0258,-0.064,-0.0482,right
L,181.94,188.71,801.63,753.27,799.83,0.6534,7.9725,5.21,-0.0272,0.0506,-0.0152,right
R,494.46,200.34,257.67,792.74,781.65,-0.1612,9.3026,2.0846,-0.0392,-0.0535,0.0258,left
H,530.32,209.57,208.01,793.29,807.31,-5.1576,5.0998,5.5966,0.0357,-0.0378,-0.0579,left
D,505.73,174.54,810.99,811.62,785.66,-0.1319,9.4856,1.5021,-0.0792,-0.0171,0.1003,left
S,753.81,802.31,815.66,759.93,798.17,0.0354,9.7125,0.6907,0.0414,0.0309,0.0091,right
O,548.04,563.63,567.64,550.59,569.35,-0.0545,8.9314,3.1684,0.0025,0.0219,0.069,left
H,498.09,192.34,191.57,771.29,807.65,-4.9299,4.755,5.5414,0.0451,-0.0165,0.0647,left
Y,187.32,795.03,802.15,808.06,210.89,0.0943,8.6595,3.8022,0.056,-0.0531,0.0117,right
P,468.96,230.2,490.87,822.28,818.05,3.0374,4.9002,7.5495,-0.0849,-0.0583,0.0275,right
A,690.8,803.52,809.6,786.5,807.07,-0.3111,9.9012,0.4847,0.1002,-0.0325,-0.0606,left
T,625.39,788.55,779.27,794.61,813.74,0.1095,9.6222,0.5126,-0.0311,0.0581,-0.0395,right
P,502.64,204.05,511.87,815.19,806.15,2.9721,4.9743,7.4635,-0.0793,-0.0562,0.0625,right
X,494.97,490.08,807.22,808.82,804.19,-0.2252,9.4126,1.0807,-0.0249,0.0073,0.0344,left
Q,507.54,211.97,792.4,824.05,793.2,2.8831,5.5032,6.8817,-0.0353,-0.0596,-0.0823,right
O,572.66,547.98,579.3,554.82,535.82,0.1636,8.9532,3.2006,0.015,0.0253,-0.0227,left
K,492.92,167.11,402.93,821.52,793.61,1.0027,9.0791,3.0918,-0.0643,-0.1147,0.0273,right
R,495.44,170.65,271.59,791.39,813.61,-0.0261,9.3774,1.9313,0.0318,0.0095,0.0245,left
W,497.11,199.6,246.36,219.05,808.28,0.3371,9.5659,1.3757,-0.0043,0.0098,0.0408,right
N,673.11,804.75,806.21,770.25,798.15,0.4639,9.5746,0.8932,-0.0051,0.0015,0.0837,right
R,494.1,219.49,261.44,793.39,786.76,-0.552,9.1846,1.7614,-0.052,-0.0422,0.0497,left
E,598.13,653.37,661.79,689.74,652.98,0.1842,9.721,0.8656,-0.0283,0.067,-0.0168,right
T,632.93,796.29,799.75,806.22,817.35,-0.4686,9.7449,0.5913,0.014,0.0277,-0.054,left
U,486.63,196.54,190.35,808.99,824.33,-0.0686,9.6835,1.0881,-0.0405,0.0274,0.0451,left
A,698.55,770.59,820.32,782.13,791.64,0.1601,9.7153,0.3936,-0.0539,-0.0157,0.0355,right
B,724.13,184.32,206.24,181.85,180.33,-0.1173,9.7241,0.3491,0.025,0.0466,0.0112,right
E,598.22,714.38,667.41,682.1,693.56,-0.0637,9.6508,0.7771,-0.0602,-0.0444,-0.0913,right
K,500.62,186.32,387.64,785.94,778.22,1.1066,8.9953,2.9488,0.0383,0.0314,-0.0135,right
H,504.61,207.64,190.08,806.73,809.08,4.9165,4.9116,5.6252,0.0425,-0.05,-0.0292,right
S,739.64,816.01,801.42,802.18,784.37,-0.0519,9.8995,0.4376,0.0362,0.0229,0.0606,right
Z,498.07,203.29,798.04,820.53,798.09,-0.3441,8.826,1.7931,2.5173,1.5348,0.972,left
F,358.28,752.11,208.71,193.54,208.3,-0.4312,9.2125,2.1542,0.0326,0.1002,0.0594,left
B,726.52,207.96,197.57,179.6,183.64,0.0546,9.8121,0.2255,-0.047,-0.048,0.0434,right
Q,485.8,207.13,799.91,803.68,801.14,-2.9892,5.5705,7.2123,0.0232,-0.0241,-0.0761,left
M,781.15,810.1,808.05,790.88,798.04,-0.3189,9.5981,0.7786,-0.0833,0.046,0.0207,left
J,799.07,802.02,792.02,814.77,209.0,-0.2081,9.5629,0.3441,2.9509,0.4635,2.0322,right
O,545.78,549.31,568.47,568.84,574.49,-0.353,9.1086,2.9242,0.0683,0.0206,-0.0478,right
U,522.92,203.58,229.96,789.9,791.16,0.076,9.6608,1.0278,0.0002,0.0622,0.0573,right
D,534.92,202.56,783.13,799.41,790.98,0.2024,9.5012,1.3681,-0.0196,0.0353,-0.0632,right
G,528.54,219.79,775.07,811.48,766.42,4.9838,5.0178,5.8973,-0.0663,-0.0484,0.0369,right
C,517.66,494.06,514.95,510.61,496.8,0.3118,8.8409,4.154,0.0458,0.0697,0.0251,right
V,489.24,172.27,191.98,810.38,796.87,-0.2628,9.1267,2.6523,0.0291,0.0226,0.0328,left
V,519.11,206.8,211.78,817.59,829.78,-0.4185,9.0517,2.6724,-0.0585,-0.0148,0.1022,left
A,684.84,810.59,792.28,814.61,783.87,0.1632,9.6349,0.8629,-0.0836,0.0449,-0.0817,left
E,628.35,668.21,667.19,709.39,694.38,-0.1333,9.5852,0.8942,0.0054,-0.0596,-0.0667,right
X,486.39,497.95,798.58,807.48,782.51,-0.0786,9.3128,1.2429,-0.0654,-0.0295,0.0802,left
U,454.93,186.24,225.85,811.85,787.68,0.136,9.2421,1.2365,0.022,0.0282,-0.0314,right
J,798.69,791.95,800.01,797.69,211.96,0.1866,9.7191,0.4158,3.0566,0.3978,2.0578,right
T,637.58,791.26,795.95,797.93,788.36,0.2034,9.613,0.1652,0.0448,-0.054,-0.0015,right
X,498.49,496.39,799.45,802.5,798.76,-0.1143,9.5406,1.2989,0.0247,0.0802,-0.089,left
B,722.43,206.43,196.12,203.66,176.88,0.0456,10.0013,0.0122,-0.1704,0.0083,0.0257,left
D,501.91,196.69,791.35,802.8,793.57,0.0876,9.3288,1.3649,0.0929,-0.0598,0.0335,right
D,485.44,208.43,796.81,806.75,794.4,-0.1182,9.5605,1.5854,0.0719,-0.0141,-0.0797,left
I,810.47,811.68,798.14,803.32,181.65,-0.2157,10.1143,0.2928,0.0425,0.0393,-0.0756,right
N,676.68,793.55,782.23,808.65,805.45,-0.1624,9.714,0.7731,-0.0264,0.0711,0.0264,left
O,552.8,530.6,578.52,551.48,568.48,-0.1143,9.0971,3.0661,-0.0526,0.0905,0.0142,right
T,634.55,777.69,800.99,802.31,811.42,-0.4006,9.5573,0.4182,0.05,0.0362,-0.0097,left
N,682.41,817.15,797.37,784.24,808.37,-0.3288,9.5517,0.6898,0.0181,-0.0045,-0.0253,left
N,680.51,814.95,793.59,783.27,799.78,0.2515,9.3594,0.8946,-0.0331,0.0633,0.02,right
T,618.26,789.49,771.56,793.02,818.86,0.253,9.6638,0.4141,0.0112,-0.0144,-0.0195,right
S,750.66,785.0,787.96,808.11,797.19,-0.2414,9.4632,0.35,0.0557,-0.0324,-0.0052,left
G,506.0,211.29,799.74,792.47,815.94,-4.8329,4.9512,5.881,0.0352,0.1364,-0.0756,left
J,809.58,812.03,802.14,794.67,198.58,-0.3066,9.5555,0.331,3.059,0.4917,1.9902,left
V,504.69,214.63,186.68,798.58,791.82,-0.3946,8.8548,2.4526,0.0294,-0.0146,0.0049,left
O,561.38,564.17,558.76,560.38,532.65,0.3507,9.1985,2.9125,-0.0822,0.0482,0.0977,left
P,511.28,186.53,514.69,789.37,810.53,-3.2782,5.2539,7.5247,-0.0198,0.0195,-0.0166,left
I,803.18,813.72,807.02,813.5,193.98,0.2362,9.6464,0.4142,0.0288,-0.0665,-0.0127,right
S,768.14,798.23,828.87,786.77,781.67,0.0678,9.7529,0.2441,-0.0234,-0.0549,-0.0738,left
U,493.72,208.0,179.08,801.41,789.84,-0.2036,9.5952,1.0015,0.0338,-0.0413,0.021,left
K,521.86,219.14,402.84,811.26,777.45,-1.1784,9.1171,2.939,-0.0154,-0.0462,0.0651,left
T,640.72,809.99,807.38,782.32,814.09,0.2776,9.6213,0.389,-0.0019,-0.055,0.0048,right
T,621.0,795.85,779.98,794.74,794.89,0.2937,9.5705,0.64,-0.0903,0.0315,-0.0061,right
N,684.09,806.86,820.27,797.28,817.37,0.326,9.5437,0.5471,-0.0276,-0.1031,-0.0424,right
X,496.38,493.56,791.91,787.25,788.17,0.1966,9.4164,1.4162,0.0009,0.0267,0.0604,right
M,806.01,781.52,795.98,804.03,810.0,0.3885,9.4143,0.6021,0.0223,-0.0034,-0.0118,right
D,482.33,173.87,796.6,810.12,815.81,0.0858,9.5793,1.6645,-0.0493,-0.0203,0.0364,right
A,679.88,795.06,777.21,785.67,807.94,0.0467,9.9979,0.5049,-0.0294,-0.0357,0.0189,right
F,373.91,761.19,214.66,207.55,225.68,-0.5077,9.1209,1.7919,0.0049,-0.0383,0.0077,left
D,487.97,185.91,812.29,793.24,832.32,0.2637,9.3693,1.5531,-0.0513,0.1029,0.0291,right
N,666.29,809.81,805.92,822.13,825.96,-0.4003,9.37,0.4803,-0.0184,0.0353,-0.0293,left
T,604.15,811.41,803.52,789.63,835.18,0.1974,9.8034,0.6388,-0.0189,-0.007,0.0453,right
P,519.76,199.15,511.38,804.91,768.66,-3.1574,4.9637,7.3393,-0.003,0.0907,-0.0553,left
J,802.4,762.19,788.46,801.26,193.72,0.0081,9.7726,0.4815,2.9881,0.4911,2.0467,left
O,562.87,562.91,603.5,581.62,564.06,-0.0623,9.1214,2.9166,-0.0034,0.0105,-0.083,left
C,492.67,500.24,479.86,500.05,459.28,0.2269,8.8485,3.9712,0.0671,0.0732,-0.0434,right
D,514.06,196.44,814.06,794.63,810.24,-0.1246,9.5575,1.5664,0.084,-0.0281,0.0702,left
T,632.5,777.66,769.19,792.57,811.46,0.3313,9.2993,0.5904,0.1299,0.0175,0.0437,right
V,500.48,192.41,200.44,805.55,809.17,-0.4115,9.0434,2.4303,-0.0368,-0.0066,0.0045,left
V,488.72,182.46,176.16,793.48,804.59,0.6699,9.0046,2.361,0.0529,0.0691,0.0012,right
X,505.75,505.51,796.44,766.91,823.9,-0.6081,9.2884,1.1675,-0.0178,0.0959,0.0151,left
U,465.7,184.32,192.39,785.82,786.74,0.2089,9.6651,1.1855,0.0202,-0.0092,-0.0607,right
O,550.96,550.19,572.69,578.83,556.21,-0.1778,8.9636,3.198,0.0285,-0.0217,0.0569,left
Q,516.03,225.26,786.52,812.36,789.73,-2.9169,5.6127,7.1024,0.0145,0.0633,0.0748,left
D,498.43,199.08,839.09,799.86,810.26,-0.363,9.3983,1.4321,-0.023,-0.0525,-0.0208,left
L,192.74,210.98,803.79,792.27,810.75,0.3602,7.9103,4.9816,-0.0391,0.0324,-0.0346,right
S,742.51,819.03,797.41,807.2,792.13,-0.1321,9.7442,0.2627,0.0048,-0.0306,-0.0316,left
G,499.63,186.61,807.55,807.55,809.86,4.9846,5.2074,6.1204,-0.0264,-0.0222,-0.0507,right
N,697.91,800.41,809.36,817.93,807.76,0.3053,9.5639,0.9139,0.0366,-0.0039,-0.0455,right
L,178.22,200.78,797.78,791.76,817.8,-0.6232,8.11,4.621,0.011,-0.07,0.0497,left
X,494.24,523.79,818.92,819.76,811.8,-0.5437,9.3487,1.4073,0.0018,0.0335,0.0837,left
Z,507.26,191.36,805.06,786.17,805.25,0.5825,8.9988,2.1121,2.5227,1.3729,1.0196,right
R,499.67,187.43,268.3,843.25,800.78,0.5224,9.384,1.5098,-0.0656,-0.0516,0.0204,right
T,620.06,799.51,814.03,786.36,808.18,0.4064,9.7664,0.544,-0.0312,-0.054,0.0055,right
S,759.12,796.98,771.36,774.28,793.25,-0.0739,9.5562,0.137,0.0502,0.0586,0.0058,left
I,773.37,815.46,792.97,791.74,213.57,-0.3169,9.9287,0.6764,-0.0003,0.0689,-0.0268,left
Z,495.29,191.29,789.44,799.19,798.82,0.438,9.0362,1.71,2.5398,1.549,0.9677,right
G,487.32,212.68,779.49,795.77,823.34,4.8957,4.941,6.0529,-0.0696,-0.046,0.0333,right
L,194.85,237.96,810.63,784.69,823.55,0.6284,7.8277,5.0601,0.003,0.0893,0.0482,right
E,621.41,695.95,706.56,682.52,667.02,-0.0764,9.6171,1.1947,-0.0669,-0.0374,-0.011,right
G,487.9,227.34,795.54,782.96,817.43,-4.8844,5.0128,5.9265,-0.0138,-0.0746,0.0186,left
K,493.61,193.85,413.27,809.58,802.9,-1.0179,8.789,2.8276,-0.0869,-0.0059,-0.0659,left
D,527.94,199.41,801.98,799.76,792.06,-0.3423,9.6707,1.3832,-0.0915,-0.0871,-0.0181,left
N,648.63,810.56,782.48,825.79,785.68,-0.4704,9.5326,0.7134,-0.0955,-0.0542,-0.0342,left
Q,481.01,200.67,800.21,817.34,787.5,2.7576,5.3991,6.9649,-0.0079,-0.0461,0.0101,right
G,501.65,206.47,788.99,784.41,793.91,-4.9896,5.0018,5.9702,0.1246,0.0286,-0.0488,left
E,615.06,653.37,652.22,669.93,688.95,0.2538,9.5878,0.6307,0.0522,0.0032,0.0702,right
W,509.99,199.21,196.73,180.64,791.22,0.3934,9.297,1.3038,-0.0983,-0.0229,-0.0015,right
Z,522.74,198.59,787.25,787.47,806.69,-0.6321,9.2869,2.1487,2.5022,1.4885,1.0153,left
Z,499.88,213.98,810.58,806.61,817.46,-0.586,8.6918,1.871,2.5089,1.5131,0.9765,left
Q,486.8,196.49,767.05,779.58,803.78,-3.1255,5.4519,6.7988,0.0115,0.0236,0.106,left
O,555.41,576.81,574.68,565.19,547.28,-0.02,8.8567,2.6315,0.0243,-0.0558,-0.0293,left
I,826.3,811.17,773.1,793.28,185.46,-0.3047,9.7581,0.6121,0.0737,0.0669,-0.0017,left
J,784.22,797.99,794.42,789.64,200.35,0.0193,9.552,0.2698,3.0382,0.4506,2.0773,right
T,624.74,798.23,800.43,800.28,794.45,0.0153,9.6799,0.3936,-0.0887,-0.0089,0.0639,left
R,496.11,177.49,245.34,793.6,802.53,-0.4756,9.3347,1.9403,-0.0196,-0.0064,-0.0368,left
Y,192.63,813.16,795.26,789.79,179.11,-0.1514,8.8374,3.8318,0.0177,0.0774,-0.0152,left
N,644.77,794.92,802.36,825.03,813.42,0.2764,9.2867,0.8305,-0.0627,0.003,-0.0708,right
Y,190.75,796.83,813.43,780.61,200.88,0.2511,8.7366,4.1354,0.0404,-0.0052,-0.0155,right
J,792.49,817.69,799.27,820.53,199.0,-0.1539,9.6626,0.3247,3.0086,0.4823,2.0676,right
P,504.13,198.38,497.92,802.31,802.88,-3.1067,5.1459,7.4375,0.0807,-0.0173,-0.0223,left
P,490.42,182.21,489.31,815.83,825.49,-2.8336,4.9561,7.2229,0.1002,-0.0528,0.0641,left
D,497.34,205.62,832.98,822.7,802.7,0.0168,9.4279,1.4261,-0.0238,-0.0252,-0.0375,right
V,519.73,184.56,179.67,810.85,805.09,-0.6979,9.173,2.8681,0.0431,-0.0935,0.0205,left
R,519.61,219.22,247.68,797.53,803.87,0.2703,9.3253,1.6551,0.0317,0.0075,-0.003,right
L,206.88,186.83,799.85,793.14,798.67,-0.5636,8.1956,4.9216,-0.0125,0.0473,0.0709,left
J,774.74,796.3,807.06,806.1,191.57,-0.0593,9.5447,0.2946,2.929,0.5654,1.9798,left
I,793.87,798.77,787.55,802.82,207.85,-0.0938,9.6754,0.5106,-0.0464,0.062,0.0642,right
K,459.69,201.76,386.24,812.83,793.01,-0.9065,9.0753,2.8685,-0.0449,0.126,-0.0773,left
Y,199.0,803.0,780.21,806.9,200.78,0.298,8.7047,4.2148,0.0059,-0.0544,0.0442,right
H,519.61,223.38,191.6,823.06,778.0,-4.9997,4.9345,5.5849,-0.0746,0.0376,0.0062,left
M,799.34,796.03,783.17,790.89,794.55,0.0922,9.6477,0.8806,-0.0016,-0.0681,0.0052,right
G,488.77,179.53,769.39,788.97,821.68,4.9629,4.625,5.9062,-0.0145,0.0685,0.0216,right
I,804.23,805.31,783.1,797.44,215.64,0.1892,9.589,0.4501,-0.0393,0.0761,-0.0945,left
V,501.32,196.77,177.35,790.31,810.86,0.4999,9.2734,2.778,-0.0048,0.0394,0.0347,right
C,518.86,529.3,496.71,521.62,499.96,-0.1554,8.5742,3.9487,-0.034,0.0259,-0.0114,left
G,516.33,170.97,807.28,770.62,786.61,4.9759,5.2302,5.6277,-0.0766,-0.0358,0.0346,right
K,474.92,231.53,388.65,816.39,796.1,-1.0203,8.8809,3.1402,-0.0054,0.0365,-0.0465,left
I,815.67,797.68,807.4,789.2,221.12,0.0207,9.5581,0.207,0.0435,-0.0724,0.0571,left
X,482.56,508.96,809.11,787.37,799.95,-0.3314,9.2061,1.1865,0.0022,-0.0052,0.0597,left
L,205.17,191.17,809.31,795.89,772.1,-0.5514,8.118,4.7654,-0.0328,0.1185,0.0042,left
J,816.77,809.93,842.27,812.25,195.32,-0.0952,9.8074,0.4712,3.0828,0.4898,2.0569,left
J,797.02,763.39,794.49,802.3,191.23,-0.1593,10.0881,0.3076,3.121,0.6244,2.05,left
V,522.26,206.31,198.9,804.98,762.61,0.3533,9.4287,2.4762,-0.0059,-0.0174,0.0846,right
D,524.74,186.22,814.37,792.68,801.7,0.0008,9.5704,1.3172,-0.0337,-0.0324,0.0057,left
M,782.97,792.9,817.71,805.39,777.63,0.1434,9.6906,0.5984,0.041,0.0634,-0.0655,right
X,478.57,484.39,819.86,788.92,786.71,-0.6711,9.51,1.1947,0.022,-0.009,-0.0072,left
B,757.11,199.8,173.12,226.27,182.08,0.0464,9.5843,0.1355,0.0509,-0.0558,0.013,left
G,520.21,207.28,790.8,794.68,811.13,-5.0476,5.1846,6.0263,-0.0703,0.0251,0.0511,left
G,510.02,200.19,793.28,818.46,808.72,5.0729,4.9418,5.7504,-0.0156,-0.0213,-0.0427,right
U,517.92,178.22,193.08,819.54,792.02,0.1919,9.2041,0.9838,0.0078,-0.0534,-0.091,right
F,364.7,737.77,219.06,192.19,209.19,-0.4779,8.8325,2.0003,-0.0609,-0.0626,-0.0028,left
L,183.47,186.94,785.85,794.23,808.45,0.6433,7.9863,4.9661,0.042,-0.0056,-0.0109,right
L,199.5,210.78,811.76,784.01,801.39,-0.4812,7.8825,5.1347,0.0413,-0.0439,-0.1062,left
G,495.24,216.95,781.25,799.44,806.83,4.8258,5.2533,6.0282,0.1028,-0.006,0.0401,right
I,798.49,795.31,806.25,792.95,185.09,0.1117,9.919,0.3784,0.0891,-0.1251,-0.0433,right
T,617.21,788.2,810.73,796.01,790.35,-0.2842,9.6134,0.3137,0.0455,0.0563,0.1022,left
C,505.75,492.99,514.21,521.58,517.69,-0.4385,8.6845,4.1634,0.0989,0.0016,0.0153,left
R,493.14,199.83,260.0,768.43,784.03,-0.0982,9.3653,1.8445,0.0766,-0.022,0.0336,left
B,766.56,213.9,212.73,183.65,183.3,-0.0074,9.5496,0.1111,0.0434,-0.0333,0.0267,left
D,494.48,205.54,785.52,800.44,789.23,-0.0623,9.5555,1.1145,-0.0184,-0.0452,-0.1083,left
Z,501.49,186.42,790.11,776.56,798.48,-0.5948,8.8728,2.0178,2.5135,1.4876,1.0163,left
L,208.37,215.54,775.51,803.77,782.11,0.5137,8.1,4.9224,-0.0433,0.0364,0.026,right
J,791.68,781.47,815.22,803.79,183.31,0.2796,9.7809,0.5173,2.9899,0.6366,2.0872,right
F,395.47,726.21,202.15,191.09,202.21,0.523,8.997,2.0487,0.0167,0.0368,-0.0813,right
O,555.6,548.89,545.35,537.45,559.93,-0.0304,8.7155,2.8723,0.0022,0.0407,0.0309,left
C,514.51,489.07,495.6,486.2,506.24,0.2899,8.5663,4.0454,0.0084,-0.0178,-0.0486,right
H,465.41,201.86,179.06,794.42,796.98,-4.9637,5.0145,5.3873,0.0894,0.024,0.0104,left
G,509.37,179.64,801.22,794.92,799.63,4.9246,4.8692,5.9664,-0.0516,-0.0059,0.0051,right
K,486.31,184.64,372.73,787.54,816.68,0.9238,8.9705,3.1445,0.0216,-0.0137,0.0135,right
Y,213.38,781.28,784.03,805.52,201.32,-0.4841,8.8681,3.683,0.069,-0.03,-0.0493,left
V,515.65,191.87,195.13,777.94,807.73,0.6172,9.085,2.4865,-0.0258,-0.1088,0.0567,right
G,470.2,205.9,814.91,797.58,803.47,5.1434,4.8208,6.0938,0.0572,0.0283,0.1095,right
O,543.97,583.65,525.61,543.28,579.07,0.2818,9.1788,3.1934,0.0423,0.0193,0.0063,right
D,482.74,201.84,812.3,789.51,820.17,0.2848,9.8011,1.5234,-0.0815,-0.0128,-0.0058,right
X,510.66,503.7,813.78,768.72,799.04,-0.3429,9.3232,1.1588,-0.0162,0.0283,0.0423,left
P,509.03,191.74,485.26,790.57,824.86,3.1174,4.8636,7.6786,-0.0153,0.0092,-0.0054,right
N,655.05,814.66,799.51,824.62,794.13,-0.2023,9.5593,0.7943,0.0205,0.0343,-0.0618,left
V,496.75,216.53,205.15,815.15,798.52,0.4478,9.3756,2.5286,-0.0296,-0.0203,0.0494,right
V,487.07,164.04,209.34,816.14,793.21,-0.4029,8.7022,2.7675,0.0892,0.0211,-0.0436,left
M,785.09,793.9,791.14,816.65,789.82,0.038,9.6942,0.3908,0.0544,0.0662,0.0533,right
L,179.04,212.96,802.07,796.47,792.42,-0.688,8.0819,4.9143,0.0163,0.0622,-0.0587,left
F,368.14,730.0,209.06,234.8,213.79,0.4851,9.361,1.6558,0.006,-0.0241,-0.02,right
H,503.09,215.47,193.72,806.12,806.31,-5.0961,5.2157,5.6271,-0.0169,0.0581,0.0018,left
X,502.5,509.63,779.36,810.44,779.49,0.3105,9.0465,1.2319,-0.0284,-0.0185,-0.0168,right
S,741.68,807.45,819.8,803.09,785.9,-0.2962,9.7341,0.3492,-0.0201,0.0005,0.0148,left
U,501.94,185.1,158.35,792.58,807.55,-0.1597,9.4739,0.9871,0.0498,0.0147,-0.0,left
I,832.29,769.13,812.06,816.51,213.52,-0.0443,9.7305,0.4387,0.0129,0.0359,0.0068,left
W,489.16,182.59,195.58,201.31,798.98,-0.344,9.1337,1.5096,-0.075,-0.0655,0.0206,left
A,679.07,805.95,797.34,811.65,792.07,0.2693,9.7702,0.5831,-0.027,-0.0735,0.0471,right
X,509.64,490.09,766.25,797.89,803.02,0.556,9.1935,1.3346,0.1228,0.1075,-0.0397,right
Z,488.77,200.35,801.67,782.38,818.46,0.6467,8.8659,2.1029,2.519,1.4704,0.963,right
I,786.64,789.14,824.04,825.75,206.54,-0.3362,9.8399,0.4004,-0.0361,-0.0049,-0.0455,left
J,807.35,809.09,802.54,805.46,218.56,-0.1744,9.718,0.4667,3.0146,0.4504,1.9302,right
I,811.86,789.62,804.81,786.49,200.74,0.2705,9.8438,0.2948,-0.0783,0.0323,0.0345,right
L,220.4,215.54,800.96,803.27,804.53,-0.3717,7.9813,5.0881,0.0711,-0.0436,-0.0105,left
L,209.74,187.64,837.9,818.28,782.27,-0.3551,7.8959,4.7725,0.0411,0.0485,-0.0144,left
L,186.55,207.31,794.53,823.92,797.93,-0.5169,8.0189,4.9203,-0.0446,-0.0088,-0.0155,left
G,506.36,159.77,796.62,790.34,780.61,4.9215,4.6625,5.7866,-0.0123,0.0486,0.0283,right
M,804.04,814.11,802.61,793.91,815.04,0.4956,9.5878,0.5246,0.0011,-0.0253,-0.068,right
I,815.1,808.63,791.25,784.37,219.36,0.1282,9.5923,0.3471,-0.0026,-0.0889,0.0241,right
N,673.83,798.7,793.56,779.18,809.33,0.359,9.7309,0.5407,0.0457,0.0325,0.0863,right
G,506.2,210.24,771.06,816.02,792.33,-4.9024,4.654,5.9349,-0.085,-0.0074,0.0091,left
U,499.21,210.07,199.97,784.28,789.37,-0.0709,9.4881,1.0592,-0.0053,0.0045,-0.012,right
V,499.81,199.94,197.91,815.8,764.45,-0.3693,8.932,2.5397,0.0225,0.1449,0.092,left
P,500.51,214.59,476.99,804.05,798.93,3.1221,5.0751,7.49,-0.0082,-0.0512,0.0696,right
H,522.04,213.24,209.38,812.6,824.08,5.2162,4.9885,5.3376,-0.0099,0.0009,-0.0354,right
K,479.11,221.46,390.75,801.21,784.5,1.2813,9.0261,2.9319,-0.0176,-0.0079,-0.0883,right
C,502.36,455.52,517.91,501.77,489.11,0.3743,8.3146,3.8604,0.0635,-0.0202,-0.0223,right
W,530.9,196.23,203.12,222.41,796.36,0.282,9.3975,1.2649,-0.0839,0.0405,0.0552,right
I,819.64,794.62,803.0,813.83,214.47,0.2512,9.8028,0.4518,-0.0797,0.0732,-0.0169,right
E,634.44,690.53,686.06,653.74,662.82,-0.1496,9.741,0.8478,-0.0594,-0.0681,0.0251,right
W,496.58,202.71,187.31,209.74,804.49,0.3024,9.2626,1.1889,0.0603,0.0371,-0.0006,right
C,484.07,502.4,495.68,487.58,491.51,-0.0401,8.7188,4.1931,-0.045,-0.0603,0.0736,left
Q,511.57,176.76,802.18,816.35,806.13,-2.9241,5.674,6.9249,-0.048,-0.0122,0.0021,left
R,532.82,191.06,235.8,806.78,819.12,-0.3048,9.4633,1.7815,0.0619,-0.0776,0.0571,left
O,590.06,563.1,557.23,534.56,566.07,-0.2495,8.9089,2.8497,-0.0541,-0.0298,-0.0823,left
B,734.46,198.08,174.5,199.32,191.63,0.4431,9.768,0.1317,0.0494,-0.0078,0.0127,left
J,801.14,790.06,793.78,811.53,217.31,-0.1039,9.6496,0.237,2.9975,0.5137,2.0314,left
P,494.93,195.71,499.96,820.26,799.2,2.6461,5.0094,7.6703,-0.0051,0.0298,0.0037,right
M,799.39,771.43,821.43,809.88,799.91,0.2569,9.5103,0.8426,0.0085,-0.0412,0.0538,right
L,182.34,209.98,793.98,812.92,824.56,0.6921,8.2462,4.9372,-0.0256,0.0564,-0.0771,right
Z,489.08,211.71,813.52,766.34,809.7,-0.2549,8.9783,1.8831,2.4676,1.408,1.0894,left
X,509.26,519.37,821.81,815.71,816.31,0.5176,9.3843,1.1638,-0.0075,0.0276,-0.0202,right
U,501.62,191.36,210.73,790.3,793.08,0.3773,9.443,1.1079,0.0304,0.0063,0.0418,right
U,503.37,209.94,230.92,758.45,781.15,0.0605,9.5595,1.031,0.0065,0.0998,-0.0684,right
W,524.41,201.85,165.23,187.98,785.97,0.073,9.3987,1.4257,0.0757,-0.0463,-0.0257,right
W,467.98,209.74,181.21,186.09,809.7,-0.1711,9.4188,1.5915,-0.0767,-0.0301,-0.0066,left
A,691.09,817.72,791.51,812.19,792.05,0.1931,9.6641,0.2634,-0.0515,0.0035,0.0772,right
L,195.16,190.7,823.81,805.28,784.24,0.5031,8.0053,5.1866,0.0828,-0.0065,0.0194,right
X,497.27,501.82,807.84,795.3,788.52,-0.5066,9.3386,0.9973,0.0263,-0.0535,0.0273,left
Y,203.23,796.73,801.82,814.87,203.1,-0.0215,8.7114,3.8596,-0.0844,0.0569,-0.0363,right
H,517.78,211.18,189.41,789.6,811.05,-5.0801,5.2143,5.5635,-0.0378,0.0141,0.0256,left
U,507.11,198.87,182.36,798.86,787.37,-0.0868,9.667,1.0871,0.06,-0.0689,-0.0152,left
S,770.76,805.76,792.07,808.25,823.05,-0.1979,9.4417,0.3366,0.0395,-0.0329,0.097,left
T,610.06,806.34,838.11,794.04,821.7,-0.1479,9.5226,0.4765,0.0064,-0.0008,0.0326,left
K,513.09,213.47,368.55,794.99,800.5,-1.1497,8.9866,3.0094,0.036,-0.0954,-0.0162,left
J,814.02,798.38,803.42,788.19,191.29,0.2309,9.6448,0.2462,3.0241,0.5949,2.0335,right
O,551.63,566.22,559.86,560.3,560.08,0.2341,8.8762,3.2232,-0.0562,-0.0394,0.0024,right
Z,507.46,161.62,814.17,791.42,789.14,0.548,8.8234,2.1999,2.5206,1.4283,1.0231,right
O,544.62,534.68,569.06,571.82,568.43,0.2055,9.1057,2.9633,-0.0399,0.0028,0.0037,left
E,644.04,674.83,661.51,663.21,675.38,-0.1716,9.5235,0.7247,0.0503,0.0455,-0.0499,left
J,809.1,793.44,796.2,796.42,207.7,-0.1524,9.5526,0.5691,2.9565,0.4702,1.9471,right
Q,506.66,172.08,775.85,776.58,774.53,2.7402,5.3009,6.9409,-0.0878,-0.0216,0.0009,right
C,491.72,483.22,481.66,516.41,505.77,-0.522,8.7186,4.1174,-0.0128,0.0187,0.0022,left
T,640.17,817.15,786.33,803.4,791.56,0.0581,9.5098,0.4568,-0.0264,0.1043,0.0131,left
U,502.16,196.59,192.37,828.01,790.04,-0.1971,9.2543,1.0491,0.0609,0.05,-0.0271,left
I,801.15,804.7,798.59,835.36,198.22,0.1653,9.7657,0.1453,-0.0269,0.0168,0.0571,right
I,792.42,804.19,815.98,799.24,220.14,0.1331,9.7684,0.4362,0.0486,0.0402,0.0654,right
X,494.87,497.87,768.09,802.43,813.97,-0.4355,9.405,1.4142,0.1034,0.0414,-0.0204,left
M,811.58,807.96,791.82,770.27,790.42,0.2002,9.5124,0.6624,0.0705,-0.0064,-0.0446,right
A,675.52,814.22,822.15,782.05,776.27,-0.1581,9.7987,0.1952,-0.0398,0.0029,-0.0494,left
